tree
version=v4
num_class=1
num_tree_per_iteration=1
label_index=0
max_feature_idx=49
objective=regression
feature_names=Column_0 Column_1 Column_2 Column_3 Column_4 Column_5 Column_6 Column_7 Column_8 Column_9 Column_10 Column_11 Column_12 Column_13 Column_14 Column_15 Column_16 Column_17 Column_18 Column_19 Column_20 Column_21 Column_22 Column_23 Column_24 Column_25 Column_26 Column_27 Column_28 Column_29 Column_30 Column_31 Column_32 Column_33 Column_34 Column_35 Column_36 Column_37 Column_38 Column_39 Column_40 Column_41 Column_42 Column_43 Column_44 Column_45 Column_46 Column_47 Column_48 Column_49
feature_infos=[0.79010000000000002:0.85660000000000003] [0:114649185] [-0.012799999999999923:0.065508188523565325] [0.7904199999999999:0.85604000000000013] [0.79067142857142858:0.8557300000000001] [0.98956277141729188:1.0518326545723804] [0:0.029373197396096257] [474804.28091373603:92035936.844624996] [0:4.6930090189548785] [0:99.999987272728887] [0.79010000000000002:0.85660000000000003] [0:114649185] [-0.012799999999999923:0.065508188523565325] [0.7904199999999999:0.85604000000000013] [0.79067142857142858:0.8557300000000001] [0.98956277141729188:1.0518326545723804] [0:0.029373197396096257] [474804.28091373603:92035936.844624996] [0:4.6930090189548785] [0:99.999987272728887] [0.79010000000000002:0.85660000000000003] [0:114649185] [-0.012799999999999923:0.065508188523565325] [0.7904199999999999:0.85604000000000013] [0.79067142857142858:0.8557300000000001] [0.98956277141729188:1.0518326545723804] [7.2962248096758819e-05:0.029373197396096257] [474804.28091373603:92035936.844624996] [0:4.6930090189548785] [0:99.999987272728887] [0.79010000000000002:0.85660000000000003] [0:114649185] [-0.012799999999999923:0.065508188523565325] [0.7904199999999999:0.85604000000000013] [0.79067142857142858:0.8557300000000001] [0.98956277141729188:1.0518326545723804] [0.00029455892664502996:0.029373197396096257] [474804.28091373603:92035936.844624996] [0:4.6930090189548785] [0:99.999987272728887] [0.79010000000000002:0.85660000000000003] [0:114649185] [-0.012799999999999923:0.065508188523565325] [0.7904199999999999:0.85604000000000013] [0.79067142857142858:0.8557300000000001] [0.98956277141729188:1.0518326545723804] [0.00029455892664502996:0.029373197396096257] [474804.28091373603:92035936.844624996] [0:4.6930090189548785] [0:99.999987272728887]
tree_sizes=1493 1480 1564 1479 1491 1577 1413 1490 1492 1406 1407 1418 1424 1423 1416 1506 1341 1249 1416 1240 1154 1056 1436 1054 1063 1326 1060 971 973 1149 1061

Tree=0
num_leaves=16
num_cat=0
split_feature=40 40 11 27 40 40 40 40 40 30 40 26 42 31 7
split_gain=0.201354 0.00246664 0.000969636 0.000588065 0.000534455 0.000502075 0.000112526 6.56804e-05 1.74531e-05 1.68286e-05 1.67495e-05 8.14562e-06 4.27121e-06 4.08513e-06 3.6964e-06
threshold=0.84765000000000013 0.79955000000000009 3457051.2000000007 1709908.289951267 0.85225000000000006 0.80245000000000011 0.85025000000000006 0.85435000000000005 0.85115000000000007 0.85285000000000011 0.84955000000000014 0.00065992849439157613 -1.0000000180025095e-35 26690246.345800005 69931135.453762516
decision_type=2 2 2 2 2 2 2 2 2 2 2 2 2 2 2
left_child=1 3 5 -1 6 -3 10 9 13 -6 14 -11 -10 -8 -2
right_child=4 2 -4 -5 7 -7 8 -9 12 11 -12 -13 -14 -15 -16
leaf_value=0.83199014465480281 0.83741053398908716 0.83258198296753416 0.83376484073091117 0.83267577062773557 0.83776884594358703 0.83321125396590712 0.83763081571965514 0.838024816656886 0.83771781612600238 0.83790357677962057 0.83753258911599837 0.83781631633586284 0.83765854207880985 0.83757070108872733 0.83746931606384967
leaf_weight=29 23 21 21 22 34 32 20 20 20 23 33 20 31 26 20
leaf_count=29 23 21 21 22 34 32 20 20 20 23 33 20 31 26 20
internal_value=0.836139 0.832821 0.83319 0.832286 0.837675 0.832962 0.83757 0.837863 0.837642 0.837821 0.837479 0.837863 0.837682 0.837597 0.837438
internal_weight=395 125 74 51 270 53 173 97 97 77 76 43 51 46 43
internal_count=395 125 74 51 270 53 173 97 97 77 76 43 51 46 43
is_linear=0
shrinkage=1


Tree=1
num_leaves=15
num_cat=0
split_feature=40 40 11 27 40 40 40 40 40 30 7 26 33 30
split_gain=0.163097 0.00199797 0.000785405 0.000476333 0.000432909 0.000412847 9.16186e-05 5.32011e-05 2.18453e-05 1.36312e-05 9.30932e-06 6.59797e-06 4.13291e-06 4.03482e-06
threshold=0.84765000000000013 0.79955000000000009 3457051.2000000007 1709908.289951267 0.85225000000000006 0.80505000000000015 0.84995000000000009 0.85435000000000005 0.85115000000000007 0.85285000000000011 70359391.956325009 0.00065992849439157613 0.85163000000000011 0.85045000000000015
decision_type=2 2 2 2 2 2 2 2 2 2 2 2 2 2
left_child=1 3 5 -1 6 -3 10 9 13 -6 -2 -11 -10 -8
right_child=4 2 -4 -5 7 -7 8 -9 12 11 -12 -13 -14 -15
leaf_value=-0.0037341863687696125 0.0011528375957693374 -0.0031134886089070092 -0.0021369596544120995 -0.0031171228397976272 0.0014666449963389077 -0.0025527920573949815 0.0012670371195544368 0.0016970186075195672 0.0014140922077266235 0.0015879028233820977 0.0012347359372221905 0.0015093683451414108 0.0013568824481057086 0.0013193665935498913
leaf_weight=29 35 29 21 22 34 24 23 20 28 23 23 20 23 41
leaf_count=29 35 29 21 22 34 24 23 20 28 23 23 20 23 41
internal_value=-1.17889e-12 -0.00298642 -0.00265452 -0.003468 0.0013826 -0.00285959 0.00128779 0.00155171 0.00133947 0.00151396 0.00118531 0.00155138 0.00138829 0.00130056
internal_weight=395 125 74 51 270 53 173 97 115 77 58 43 51 64
internal_count=395 125 74 51 270 53 173 97 115 77 58 43 51 64
is_linear=0
shrinkage=0.1


Tree=2
num_leaves=16
num_cat=0
split_feature=37 40 49 27 27 40 40 40 30 30 28 27 33 19 12
split_gain=0.132369 0.00159866 0.00103482 0.000737091 0.000385829 0.000346358 7.25245e-05 3.80069e-05 1.34915e-05 9.82899e-06 9.76149e-06 6.15852e-06 4.49434e-06 2.15146e-06 1.59465e-06
threshold=15922492.133750014 0.79955000000000009 41.897968719051683 2188649.7796970336 1709908.289951267 0.85235000000000005 0.85025000000000006 0.85435000000000005 0.85115000000000007 0.85285000000000011 1.5957046640870887 83406053.75773336 0.85163000000000011 49.999987800483787 -0.00011721268281483786
decision_type=2 2 2 2 2 2 2 2 2 2 2 2 2 2 2
left_child=1 4 -3 -4 -1 6 10 9 13 -7 11 -2 -10 -8 -11
right_child=5 2 3 -5 -6 7 8 -9 12 14 -12 -13 -14 -15 -16
leaf_value=-0.0033607677396001487 0.0010429267223705265 -0.002821951999794692 -0.0024665527215058155 -0.001627751779742539 -0.0028054106641899456 0.0013264509785021175 0.0012017002693660882 0.0015273167658597232 0.0012846426889300347 0.001421767051908232 0.0011466211396390978 0.0011128594959154724 0.0012280545342946425 0.0011584470777407936 0.0013823122950270773
leaf_weight=29 34 32 22 20 22 29 23 20 25 21 23 20 32 23 20
leaf_count=29 34 32 22 20 22 29 23 20 25 21 23 20 32 23 20
internal_value=-1.22604e-11 -0.00269042 -0.00239354 -0.00206712 -0.0031212 0.00124557 0.00116548 0.00140574 0.00122036 0.00137101 0.00109206 0.00106883 0.00125287 0.00118007 0.00140252
internal_weight=395 125 74 42 51 270 180 90 103 70 77 54 57 46 41
internal_count=395 125 74 42 51 270 180 90 103 70 77 54 57 46 41
is_linear=0
shrinkage=0.1


Tree=3
num_leaves=15
num_cat=0
split_feature=47 40 49 40 17 20 40 33 30 38 24 28 40 14
split_gain=0.107314 0.00103362 0.000599548 0.00040656 0.000324421 0.000171273 7.32597e-05 2.01248e-05 1.35428e-05 1.18605e-05 9.09755e-06 6.543e-06 6.33142e-06 3.91301e-06
threshold=7228688.5622182349 0.79955000000000009 41.897968719051683 0.85115000000000007 1696785.924963726 0.84895000000000009 0.85285000000000011 0.85404000000000013 0.85015000000000007 0.49360321055169182 0.84993000000000007 1.6022805840120398 0.85225000000000006 0.85203500000000021
decision_type=2 2 2 2 2 2 2 2 2 2 2 2 2 2
left_child=1 4 -3 5 -1 -2 9 13 10 12 -7 -10 -5 -8
right_child=3 2 -4 6 -6 8 7 -9 11 -11 -12 -13 -14 -15
leaf_value=-0.0030200990413626039 0.00072257155147583589 -0.0025397568068001421 -0.0019557287844900904 0.0011502939392812551 -0.0025076282698483694 0.0010339213209226729 0.0012876838259398939 0.0013732703890474071 0.0010321271857498466 0.0011089532887814818 0.00094343490153551101 0.0011031193006783725 0.0012254807033709118 0.0012283398136496545
leaf_weight=30 23 32 39 24 21 20 20 21 37 37 25 20 21 25
leaf_count=30 23 32 39 24 21 20 20 21 37 37 25 20 21 25
internal_value=5.65867e-12 -0.00246565 -0.00221895 0.00110186 -0.00280908 0.000969076 0.00121402 0.00129244 0.00102466 0.0011509 0.000983651 0.00105704 0.00118538 0.00125471
internal_weight=395 122 71 273 51 125 148 66 102 82 45 57 45 45
internal_count=395 122 71 273 51 125 148 66 102 82 45 57 45 45
is_linear=0
shrinkage=0.1


Tree=4
num_leaves=15
num_cat=0
split_feature=37 40 13 40 27 30 40 40 40 37 40 47 36 40
split_gain=0.0871364 0.00102719 0.000713663 0.000272807 0.00026613 0.000225225 3.90746e-05 2.88465e-05 9.05752e-06 8.11929e-06 7.20226e-06 6.61151e-06 5.19763e-06 3.19992e-06
threshold=15922492.133750014 0.79955000000000009 0.80063000000000006 0.80505000000000015 1648991.3241556033 0.85225000000000006 0.85025000000000006 0.85435000000000005 0.85255000000000014 83746775.432033345 0.85135000000000016 69426239.158875003 0.00068034336393865929 0.84955000000000014
decision_type=2 2 2 2 2 2 2 2 2 2 2 2 2 2
left_child=1 4 -3 -4 -1 6 11 8 -7 10 -8 -2 -10 -13
right_child=5 2 3 -5 -6 7 9 -9 12 -11 -12 13 -14 -15
leaf_value=-0.0027521720800835355 0.00092123232515794898 -0.0015351618916072229 -0.0024263737480277603 -0.0019444177858531477 -0.0022952150925993919 0.0010505399793725122 0.00094287513733603233 0.0012395632453262807 0.0011555679335162558 0.0010414530988782644 0.0010049834706340776 0.00083606588357890198 0.0010939937980415731 0.00089133310364559288
leaf_weight=26 35 27 23 24 25 22 43 20 29 20 33 22 26 20
leaf_count=26 35 27 23 24 25 22 43 20 29 20 33 22 26 20
internal_value=-4.95134e-12 -0.00218287 -0.00194489 -0.00218027 -0.00252817 0.00101059 0.000942199 0.00113256 0.00110477 0.000984762 0.000969843 0.000889133 0.00112646 0.000862384
internal_weight=395 125 74 47 51 270 173 97 77 96 76 77 55 42
internal_count=395 125 74 47 51 270 173 97 77 96 76 77 55 42
is_linear=0
shrinkage=0.1


Tree=5
num_leaves=16
num_cat=0
split_feature=40 40 49 39 40 27 37 40 9 1 30 27 35 41 28
split_gain=0.0707181 0.000666499 0.000453971 0.000445504 0.000267989 0.000207393 0.000125229 4.67283e-05 1.2303e-05 1.18733e-05 1.0353e-05 5.5562e-06 4.51736e-06 4.45087e-06 3.3209e-06
threshold=0.81355000000000011 0.79905000000000015 41.897968719051683 89.565202734642014 0.85115000000000007 1648991.3241556033 55668305.905550011 0.85325000000000006 65.45091167293829 26679054.675950002 0.85015000000000007 55951661.068533354 0.99961161513637919 27572984.313750003 1.6022805840120398
decision_type=2 2 2 2 2 2 2 2 2 2 2 2 2 2 2
left_child=1 5 -3 -4 6 -1 -2 9 -9 13 12 -11 -8 -6 -12
right_child=4 2 3 -5 7 -7 10 8 -10 11 14 -13 -14 -15 -16
leaf_value=-0.0025231611712471301 0.00055732185486704114 -0.0020718888642314156 -0.0012586842803284527 -0.0019261452415958048 0.00095318726729601625 -0.0020828570192679761 0.00077013768112430209 0.0010219231061637402 0.0011217207337419191 0.00087459351468299111 0.00084223507593075451 0.00093931754430135101 0.0008275411364718759 0.0010199020989239216 0.00089484135620296009
leaf_weight=23 20 39 20 20 20 20 26 30 21 21 30 36 29 20 20
leaf_count=23 20 39 20 20 20 20 26 30 21 21 30 36 29 20 20
internal_value=-7.54489e-12 -0.00200156 -0.00182912 -0.00159241 0.000894469 -0.00231837 0.000786661 0.000985524 0.00106302 0.00094478 0.000830344 0.000915472 0.000800405 0.000986545 0.000863278
internal_weight=395 122 79 40 273 43 125 148 51 97 105 57 55 40 50
internal_count=395 122 79 40 273 43 125 148 51 97 105 57 55 40 50
is_linear=0
shrinkage=0.1


Tree=6
num_leaves=14
num_cat=0
split_feature=40 11 40 17 40 40 23 4 30 41 32 36 33
split_gain=0.0574303 0.000685228 0.000467125 0.000203704 0.000158818 3.13341e-05 2.01103e-05 9.28638e-06 7.87894e-06 5.99833e-06 5.06633e-06 3.4341e-06 2.50925e-06
threshold=0.84765000000000013 3457051.2000000007 0.80245000000000011 1696785.924963726 0.85225000000000006 0.84995000000000009 0.85418000000000005 0.85114500000000015 0.85135000000000016 27564841.563600004 0.00035294118135564828 0.00068732222254958757 0.85173000000000021
decision_type=2 2 2 2 2 2 2 2 2 2 2 2 2
left_child=1 2 3 -1 5 10 7 -6 11 -9 -2 -7 -10
right_child=4 -3 -4 -5 6 8 -8 9 12 -11 -12 -13 -14
leaf_value=-0.0022006553675358496 0.00068163969921634395 -0.0013038776740431786 -0.0015741481125587599 -0.0018538960866862908 0.00095828334335237755 0.00080294853821396824 0.0010122031625360249 0.00084720941677946481 0.00085300720762461436 0.00091209892915295712 0.00074382013874128459 0.00075707587195520711 0.00080457579992387603
leaf_weight=36 38 25 32 32 20 25 20 29 20 28 20 47 23
leaf_count=36 38 25 32 32 20 25 20 29 20 28 20 47 23
internal_value=5.305e-12 -0.00177214 -0.00188921 -0.00203747 0.000820437 0.000763008 0.000922862 0.000899656 0.000793232 0.000879085 0.000703081 0.000773004 0.000827102
internal_weight=395 125 100 68 270 173 97 77 115 57 58 72 43
internal_count=395 125 100 68 270 173 97 77 115 57 58 72 43
is_linear=0
shrinkage=0.1


Tree=7
num_leaves=15
num_cat=0
split_feature=47 40 13 40 40 27 27 40 9 25 40 1 27 41
split_gain=0.0466108 0.000440057 0.00035725 0.000181996 0.000170722 0.000140199 8.77664e-05 3.17398e-05 9.10297e-06 8.71599e-06 1.02353e-05 8.59912e-06 4.12884e-06 3.07547e-06
threshold=7228688.5622182349 0.79905000000000015 0.80063000000000006 0.80505000000000015 0.85115000000000007 1648991.3241556033 55707241.794183336 0.85325000000000006 65.45091167293829 1.0002823662915361 0.84965000000000013 26679054.675950002 55951661.068533354 27572984.313750003
decision_type=2 2 2 2 2 2 2 2 2 2 2 2 2 2
left_child=1 5 -3 -4 6 -1 -2 11 -9 10 -8 13 -13 -6
right_child=4 2 3 -5 7 -7 9 8 -10 -11 -12 12 -14 -15
leaf_value=-0.0020507794602409655 0.00045882273380729288 -0.0011812388574561248 -0.0018023748625198316 -0.0014301000453997405 0.00077308862702921036 -0.0016887629404664041 0.00062304412325223286 0.00082737289524326726 0.00091321620247548539 0.00072891732068875673 0.000696116453036666 0.00070509385273215318 0.00076088821644791302 0.00082854554522782575
leaf_weight=23 22 26 29 24 20 20 36 30 21 26 41 21 36 20
leaf_count=23 22 26 29 24 20 20 36 30 21 26 41 21 36 20
internal_value=4.95134e-12 -0.00162497 -0.00148485 -0.0016338 0.000726178 -0.0018824 0.000640131 0.000798854 0.00086272 0.000678856 0.000661953 0.000765275 0.000740332 0.000800817
internal_weight=395 122 79 53 273 43 125 148 51 103 77 97 57 40
internal_count=395 122 79 53 273 43 125 148 51 103 77 97 57 40
is_linear=0
shrinkage=0.1


Tree=8
num_leaves=15
num_cat=0
split_feature=37 49 27 27 30 29 23 40 16 43 40 40 14 49
split_gain=0.0378323 0.000457901 0.000760868 0.000122246 9.41653e-05 6.00495e-05 1.62154e-05 1.33741e-05 5.22024e-06 4.91035e-06 4.91053e-06 4.60249e-06 3.79668e-06 2.4981e-06
threshold=15922492.133750014 41.897968719051683 2188649.7796970336 1522280.6531272223 0.85225000000000006 13.648895608552538 0.85418000000000005 0.85025000000000006 0.00068380927426472591 0.85163000000000011 0.85115000000000007 0.85255000000000014 0.8516450000000001 32.408095733386872
decision_type=2 2 2 2 2 2 2 2 2 2 2 2 2 2
left_child=1 3 -3 -1 7 -5 11 8 -2 10 -9 -6 -13 -10
right_child=4 2 -4 5 6 -7 -8 9 13 -11 -12 12 -14 -15
leaf_value=-0.001825694590806961 0.00062709595255840286 -0.0015128135530127062 -0.00077019059945913882 -0.001629764622507187 0.00068400174246302677 -0.001399285402148962 0.0008249881397932768 0.00063561059486789582 0.00054448410170152787 0.00060740334059422216 0.0006880238751005947 0.00077383109601214528 0.00071948981688668332 0.00058981497441568684
leaf_weight=20 26 37 22 26 21 20 20 39 20 24 33 20 36 31
leaf_count=20 26 37 22 26 21 20 20 39 20 24 33 20 36 31
internal_value=5.77656e-12 -0.00143833 -0.0012359 -0.0016193 0.000665895 -0.00152956 0.000744763 0.000621675 0.000590629 0.000646576 0.000659633 0.000723926 0.000738897 0.000572038
internal_weight=395 125 59 66 270 46 97 173 77 96 72 77 56 51
internal_count=395 125 59 66 270 46 97 173 77 96 72 77 56 51
is_linear=0
shrinkage=0.1


Tree=9
num_leaves=14
num_cat=0
split_feature=40 40 10 48 40 27 27 40 23 4 15 26 40
split_gain=0.0306815 0.000308047 0.000303197 0.000172295 0.000113586 9.72722e-05 8.99603e-05 1.13867e-05 1.11205e-05 7.68357e-06 5.04826e-06 4.40702e-06 3.17991e-06
threshold=0.81355000000000011 0.79905000000000015 0.79955000000000009 0.61503482882419036 0.85225000000000006 1648991.3241556033 55651080.868850015 0.84965000000000013 0.85418000000000005 0.85114500000000015 0.99957801017362191 0.00075025024706303555 0.85105000000000008
decision_type=2 2 2 2 2 2 2 2 2 2 2 2 2
left_child=1 5 -3 -4 6 -1 -2 10 9 -6 -8 -11 -9
right_child=4 2 3 -5 8 -7 7 12 -10 11 -12 -13 -14
leaf_value=-0.0016740149129991948 0.00034160879440605643 -0.00088581121314994314 -0.0015195567645132542 -0.0011691856911056676 0.00071212497539818297 -0.0013724716496653856 0.00055503396357855074 0.00056805706308146969 0.00074248930206522346 0.00066132185618496611 0.00048633880913257605 0.00060367850985910217 0.00060171439903430066
leaf_weight=23 20 22 25 32 20 20 23 61 20 36 20 21 52
leaf_count=23 20 22 25 32 20 20 23 61 20 36 20 21 52
internal_value=0 -0.00131838 -0.00120115 -0.00132286 0.000589167 -0.00153376 0.00054128 0.000566879 0.000676053 0.000658797 0.000523083 0.000640085 0.000583545
internal_weight=395 122 79 57 273 43 176 156 97 77 43 57 113
internal_count=395 122 79 57 273 43 176 156 97 77 43 57 113
is_linear=0
shrinkage=0.1


Tree=10
num_leaves=14
num_cat=0
split_feature=40 11 30 7 40 7 40 1 7 0 35 33 29
split_gain=0.0249156 0.000391939 0.000228716 0.000116128 7.01125e-05 3.35697e-05 1.45422e-05 1.01695e-05 1.32406e-05 7.18411e-06 3.85189e-06 4.27143e-06 2.08978e-06
threshold=0.84765000000000013 3457051.2000000007 0.80245000000000011 1471437.9330006102 0.85225000000000006 2012847.6138335841 0.84965000000000013 26326857.324350003 84628996.878300011 0.85325000000000006 1.0006573238652947 0.85111000000000014 37.431314681557289
decision_type=2 2 2 2 2 2 2 2 2 2 2 2 2
left_child=1 2 3 -1 6 -5 12 8 -6 -9 11 -8 -2
right_child=4 -3 -4 5 7 -7 10 9 -10 -11 -12 -13 -14
leaf_value=-0.0015063501444870029 0.00047720286124588356 -0.00081310267746448513 -0.0010191525549403039 -0.0011567673867657073 0.00070463349577039487 -0.0013355720256056107 0.00049084328276542374 0.00055522193150544499 0.00058956559514626865 0.00062961080111563212 0.00055926756356798472 0.00053144309627400205 0.00043543550558388234
leaf_weight=29 23 25 29 21 20 21 49 37 20 20 21 55 25
leaf_count=29 23 25 29 21 20 21 49 37 20 20 21 55 25
internal_value=-3.53667e-13 -0.00116725 -0.00125579 -0.00135244 0.000540394 -0.00124617 0.000502236 0.000608448 0.0006471 0.000581323 0.000520202 0.000512314 0.000455449
internal_weight=395 125 100 71 270 42 173 97 40 57 125 104 48
internal_count=395 125 100 71 270 42 173 97 40 57 125 104 48
is_linear=0
shrinkage=0.1


Tree=11
num_leaves=14
num_cat=0
split_feature=47 49 24 40 27 47 46 40 47 46 9 36 40
split_gain=0.0202178 0.000246417 0.000435359 7.29261e-05 6.02959e-05 5.49673e-05 4.67133e-05 1.42189e-05 7.73926e-06 6.77656e-06 5.78086e-06 4.95262e-06 3.97393e-06
threshold=7228688.5622182349 41.897968719051683 0.80065500000000001 0.85115000000000007 1522280.6531272223 55692121.427033342 0.0019519318388531834 0.85335000000000016 69426239.158875003 0.0010212792549854264 62.645338257590005 0.00066035823753278521 0.84995000000000009
decision_type=2 2 2 2 2 2 2 2 2 2 2 2 2
left_child=1 4 -3 5 -1 -2 -6 9 -7 11 -9 -5 -10
right_child=3 2 -4 7 6 8 -8 10 12 -11 -12 -13 -14
leaf_value=-0.0013460777839645745 0.00027008221717551351 -0.0011237452123572843 -0.00054184127831831571 0.00052426002436765917 -0.001023199474439025 0.00049106694659161755 -0.0012264808783164392 0.00053797625975372896 0.00040704520616793275 0.00054901454311150771 0.00060894353611564095 0.00047092110783393895 0.00045419577927065968
leaf_weight=20 20 36 20 27 20 33 26 24 33 26 22 49 39
leaf_count=20 20 36 20 27 20 33 26 24 33 26 22 49 39
internal_value=1.65045e-12 -0.00107021 -0.000915922 0.000478263 -0.00120112 0.000422024 -0.0011381 0.000525762 0.000450965 0.000504946 0.000571917 0.00048987 0.000432585
internal_weight=395 122 56 273 66 125 46 148 105 102 46 76 72
internal_count=395 122 56 273 66 125 46 148 105 102 46 76 72
is_linear=0
shrinkage=0.1


Tree=12
num_leaves=14
num_cat=0
split_feature=37 49 24 10 30 48 23 22 40 26 46 43 6
split_gain=0.0164295 0.000247937 0.000490322 5.10347e-05 3.82771e-05 2.85403e-05 8.0354e-06 6.54755e-06 7.72536e-06 3.97092e-06 4.67203e-06 3.32546e-06 2.30359e-06
threshold=15922492.133750014 41.897968719051683 0.80065500000000001 0.80530000000000013 0.85225000000000006 0.69473400079228409 0.85418000000000005 0.00093825136311365142 0.85015000000000007 0.00069113607510342377 0.00082743390975845599 0.85163000000000011 0.00072529660109326691
decision_type=2 2 2 2 2 2 2 2 2 2 2 2 2
left_child=1 3 -3 5 7 -1 9 8 12 -6 -11 -10 -2
right_child=4 2 -4 -5 6 -7 -8 -9 11 10 -12 -13 -14
leaf_value=-0.001053049142605492 0.00040268355514854197 -0.0010131988735673459 -0.00041110373900404997 -0.00094765006564557553 0.00049997327630134185 -0.0012111843973398209 0.00054557731607928872 0.00046296570383544481 0.00043219099752604966 0.0004220370679501106 0.00048797963009703725 0.00038836269295248002 0.00036094079797084513
leaf_weight=21 20 38 21 20 34 25 20 21 70 22 21 23 39
leaf_count=21 20 38 21 20 34 25 20 21 70 22 21 23 39
internal_value=6.48389e-13 -0.000947851 -0.000798894 -0.00108101 0.00043882 -0.00113899 0.000489103 0.000410626 0.000403395 0.000474435 0.000454242 0.000421352 0.000375091
internal_weight=395 125 59 66 270 46 97 173 152 77 43 93 59
internal_count=395 125 59 66 270 46 97 173 152 77 43 93 59
is_linear=0
shrinkage=0.1


Tree=13
num_leaves=14
num_cat=0
split_feature=37 7 40 7 40 40 22 43 40 26 13 12 46
split_gain=0.0133079 0.000212904 0.00020665 5.64797e-05 3.82851e-05 3.11456e-05 6.00863e-06 7.49688e-06 5.56798e-06 3.73744e-06 3.70814e-06 3.24248e-06 1.06892e-06
threshold=15922492.133750014 3053644.3987304573 0.80505000000000015 1510969.1165959344 0.80045000000000011 0.85245000000000015 0.0009405126963477618 0.85067000000000004 0.85435000000000005 0.00065992849439157613 0.85048000000000012 0.00058709563990289048 0.00066035823753278521
decision_type=2 2 2 2 2 2 2 2 2 2 2 2 2
left_child=1 2 3 -1 -5 6 7 10 11 -9 -2 12 -7
right_child=5 -3 -4 4 -6 8 -8 9 -10 -11 -12 -13 -14
leaf_value=-0.0010969706626115915 0.00035674656766267231 -0.00059840202403183169 -0.00066454504364325362 -0.00082363251713104548 -0.0010169549490369502 0.00046221925559538333 0.00042118642225184226 0.00042039435458086113 0.00049153348198160529 0.000373296410451451 0.00030829363862391228 0.00039887657566439543 0.00043067744201315305
leaf_weight=34 56 26 24 20 21 22 22 23 20 63 22 21 21
leaf_count=34 56 26 24 20 21 22 22 23 20 63 22 21 21
internal_value=7.66278e-13 -0.000853066 -0.000919947 -0.00100168 -0.000922651 0.000394938 0.000372114 0.000365531 0.000445478 0.000385892 0.00034308 0.000431085 0.000446815
internal_weight=395 125 99 75 41 270 186 164 84 86 78 64 43
internal_count=395 125 99 75 41 270 186 164 84 86 78 64 43
is_linear=0
shrinkage=0.1


Tree=14
num_leaves=14
num_cat=0
split_feature=47 35 23 20 40 15 19 40 47 0 37 17 22
split_gain=0.0108 0.000174236 0.000323262 6.30082e-05 4.36616e-05 3.19474e-05 2.55843e-05 2.1741e-05 9.36807e-06 4.87637e-06 3.13005e-06 3.54128e-06 2.36113e-06
threshold=7228688.5622182349 1.0004726815943654 0.79990000000000006 0.80530000000000013 0.84955000000000014 0.99968423246253513 20.604628220178288 0.85225000000000006 56123108.090283342 0.85315000000000007 70516544.406075016 55905657.515183352 -0.00047044990835842787
decision_type=2 2 2 2 2 2 2 2 2 2 2 2 2
left_child=1 3 -3 6 5 -2 -1 10 -9 -10 12 -12 -6
right_child=4 2 -4 -5 7 -7 -8 8 9 -11 11 -13 -14
leaf_value=-0.00099850694552577782 0.00033709254767745736 -0.00088272484624758371 -0.00036325035768601559 -0.00072681878344155854 0.0002994877574521871 0.00016978442269776549 -0.00086046392004936938 0.00046250148720684511 0.00036364168939521403 0.00041446105577051643 0.00033471453589973632 0.00038694569189101462 0.00033871250414992116
leaf_weight=29 25 25 23 20 21 21 25 21 41 35 27 25 57
leaf_count=29 25 25 23 20 21 21 25 21 41 35 27 25 57
internal_value=-1.17889e-13 -0.000782193 -0.00063381 -0.000878442 0.000349551 0.000260713 -0.000934598 0.000367554 0.000403381 0.000387045 0.000340821 0.000359826 0.000328152
internal_weight=395 122 48 74 273 46 54 227 97 76 130 52 78
internal_count=395 122 48 74 273 46 54 227 97 76 130 52 78
is_linear=0
shrinkage=0.1


Tree=15
num_leaves=15
num_cat=0
split_feature=40 11 40 17 47 40 47 40 40 41 37 17 30 29
split_gain=0.00877017 0.000212369 9.81369e-05 3.60013e-05 6.89343e-05 2.72568e-05 7.58814e-06 5.14634e-06 4.3044e-06 3.22391e-06 2.53534e-06 2.86843e-06 2.15486e-06 1.64662e-06
threshold=0.84765000000000013 3457051.2000000007 0.80505000000000015 1471437.9330006102 1795619.4466597734 0.85225000000000006 56123108.090283342 0.84955000000000014 0.85385000000000011 27684424.860900003 70516544.406075016 55905657.515183352 0.85115000000000007 37.431314681557289
decision_type=2 2 2 2 2 2 2 2 2 2 2 2 2 2
left_child=1 2 3 -1 -5 7 -7 13 9 -8 12 -12 -9 -2
right_child=5 -3 -4 4 -6 6 8 10 -10 -11 11 -13 -14 -15
leaf_value=-0.00089858686153699338 0.00028685995410861713 -0.00043183250725269324 -0.00058140621367783749 -0.00062421227318866718 -0.00086997548304498188 0.00041625134292102997 0.00030641292299454412 0.00028358384577306705 0.00038816333166323606 0.00035489765359670856 0.0003012430819648284 0.00034825112018734223 0.00031884269645580878 0.00024771193698556586
leaf_weight=30 21 25 24 21 25 21 24 52 20 32 27 25 26 22
leaf_count=30 21 25 24 21 25 21 24 52 20 32 27 25 26 22
internal_value=9.83636e-13 -0.00069252 -0.000757692 -0.000813361 -0.000757779 0.000320611 0.000363043 0.00029682 0.000348341 0.000334118 0.000306739 0.000323843 0.000295337 0.000266831
internal_weight=395 125 100 76 46 270 97 173 76 56 130 52 78 43
internal_count=395 125 100 76 46 270 97 173 76 56 130 52 78 43
is_linear=0
shrinkage=0.1


Tree=16
num_leaves=13
num_cat=0
split_feature=37 5 30 21 36 40 22 40 19 9 32 6
split_gain=0.00710879 0.000182208 0.000434507 7.21127e-05 8.80097e-05 1.54357e-05 7.89442e-06 4.63886e-06 4.37449e-06 2.05466e-06 1.94158e-06 1.75057e-06
threshold=15922492.133750014 0.99877466301317774 0.79955000000000009 2907567.1660156655 0.0019140818360804035 0.85285000000000011 0.00094189674783340404 0.85015000000000007 66.666652407411121 37.431314681557289 -0.00011770937595945162 0.00061781082182054315
decision_type=2 2 2 2 2 2 2 2 2 2 2 2
left_child=1 2 -1 4 -3 6 7 10 11 -9 -2 -7
right_child=5 3 -4 -5 -6 8 -8 9 -10 -11 -12 -13
leaf_value=-0.00075952039721111466 0.00022860045792185704 -0.00075033668338531448 -0.00014425812458450143 -0.00084455720664534202 -0.00048127337918231207 0.00033164127131125762 0.00033023560156478834 0.00030069858061544826 0.00036474423056157929 0.00027139339858302095 0.00026432514142501974 0.00029080979736699237
leaf_weight=24 32 31 22 28 20 21 23 33 24 87 29 21
leaf_count=24 32 31 22 28 20 21 23 33 24 87 29 21
internal_value=1.45565e-12 -0.000623485 -0.000465265 -0.000715614 -0.000644822 0.000288651 0.000275051 0.000268038 0.000330687 0.000279452 0.000245584 0.000311226
internal_weight=395 125 46 79 51 270 204 181 66 120 61 42
internal_count=395 125 46 79 51 270 204 181 66 120 61 42
is_linear=0
shrinkage=0.1


Tree=17
num_leaves=12
num_cat=0
split_feature=40 12 19 5 40 37 4 22 13 26 6
split_gain=0.00577549 0.000159722 9.49632e-05 3.8142e-05 2.38994e-05 2.74865e-05 9.60246e-06 6.768e-06 5.95906e-06 3.73948e-06 2.83727e-06
threshold=0.81355000000000011 -0.00037500002343748834 71.428562500000865 0.99844324351125446 0.85135000000000016 55668305.905550011 0.85001500000000008 0.00070567482349204191 0.85418000000000005 0.00065992849439157613 0.00073694252311483799
decision_type=2 2 2 2 2 2 2 2 2 2 2
left_child=1 -1 3 -3 5 -2 -6 10 9 -8 -7
right_child=4 2 -4 -5 6 7 8 -9 -10 -11 -12
leaf_value=-0.00039160526345637797 0.00011750526959076525 -0.00066012519989804973 -0.00052312360856228987 -0.00083708644711545535 0.00034714788863701479 0.00025160805167009432 0.00028959349662597693 0.00029739473597146572 0.00032340983743779362 0.00024870874589279056 0.00021699649502988905
leaf_weight=35 20 29 37 21 21 45 35 20 20 62 50
leaf_count=35 20 29 37 21 21 45 35 20 20 62 50
internal_value=7.62134e-13 -0.000572002 -0.000644575 -0.000734449 0.00025562 0.000225705 0.000284884 0.000244522 0.000273709 0.000263461 0.000233391
internal_weight=395 122 87 50 273 135 138 115 117 97 95
internal_count=395 122 87 50 273 135 138 115 117 97 95
is_linear=0
shrinkage=0.1


Tree=18
num_leaves=14
num_cat=0
split_feature=47 49 15 4 47 40 17 47 26 5 39 0 22
split_gain=0.00469403 0.000132402 0.00030235 2.02828e-05 2.49068e-05 1.93902e-05 2.55805e-05 6.35688e-06 4.4327e-06 9.97898e-06 3.93573e-06 2.78551e-06 2.18144e-06
threshold=7228688.5622182349 41.897968719051683 1.0008684331521465 0.80712000000000006 1696785.924963726 0.85225000000000006 55632507.364333339 56123108.090283342 0.00065992849439157613 0.99995305924719557 52.238800512363873 0.85315000000000007 -1.0000000180025095e-35
decision_type=2 2 2 2 2 2 2 2 2 2 2 2 2
left_child=1 3 -3 4 -1 6 -2 -7 9 -8 -10 12 -9
right_child=5 2 -4 -5 -6 7 8 11 10 -11 -12 -13 -14
leaf_value=-0.00056790171629039668 0.00010418836638564245 -0.00010260338950458738 -0.00058256396158997499 -0.00052756149321794518 -0.0007156281881034375 0.00031504717134382752 0.0003011990565850976 0.00021269116328940507 0.00020156359031820034 0.00020769245037809017 0.000243608619747383 0.00027361063452969705 0.00025883766240440307
leaf_weight=21 20 21 35 20 25 21 21 21 79 25 31 35 20
leaf_count=21 20 21 35 20 25 21 21 21 79 25 31 35 20
internal_value=-8.54695e-13 -0.000515674 -0.000402579 -0.000611634 -0.000648188 0.000230448 0.000210663 0.000266347 0.000224313 0.00025038 0.000213413 0.00025289 0.000235202
internal_weight=395 122 56 66 46 273 176 97 156 46 110 76 41
internal_count=395 122 56 66 46 273 176 97 156 46 110 76 41
is_linear=0
shrinkage=0.1


Tree=19
num_leaves=12
num_cat=0
split_feature=40 12 19 5 40 27 29 42 16 23 20
split_gain=0.00380631 0.000128275 7.11308e-05 3.15163e-05 1.55963e-05 2.28735e-05 5.5e-06 6.32552e-06 4.26455e-06 3.55837e-06 3.72338e-06
threshold=0.81355000000000011 -0.00037500002343748834 71.428562500000865 0.99844324351125446 0.85225000000000006 55651080.868850015 42.857130357145543 0.00058592605814322696 0.00068380927426472591 0.84931000000000012 0.85035000000000005
decision_type=2 2 2 2 2 2 2 2 2 2 2
left_child=1 -1 3 -3 5 -2 -6 8 -8 -7 -11
right_child=4 2 -4 -5 6 9 7 -9 -10 10 -12
leaf_value=-0.00030269461434467566 8.908858784707264e-05 -0.00053962012110599165 -0.00042428539663150503 -0.0007004786260603439 0.00019574627751188183 0.00024097298931640885 0.00026794080723724936 0.0003007683681789786 0.00021148885862203317 0.00017323678514609734 0.00020846643045337664
leaf_weight=35 20 29 37 21 22 21 23 20 32 45 90
leaf_count=35 20 29 37 21 22 21 23 20 32 45 90
internal_value=7.07334e-13 -0.00046436 -0.000529398 -0.000607181 0.000207516 0.000189772 0.000239712 0.000252609 0.000235096 0.00020268 0.000196723
internal_weight=395 122 87 50 273 176 97 75 55 156 135
internal_count=395 122 87 50 273 176 97 75 55 156 135
is_linear=0
shrinkage=0.1


Tree=20
num_leaves=11
num_cat=0
split_feature=47 35 15 40 6 5 14 30 32 16
split_gain=0.0030918 0.000119452 0.00024606 3.06403e-05 2.17128e-05 1.38043e-05 1.86518e-05 4.91243e-06 2.24589e-06 2.10067e-06
threshold=7228688.5622182349 1.0004726815943654 1.0009693691920452 0.80475000000000008 0.0018224098314260249 1.0011002945541068 0.84926000000000001 0.85135000000000016 -0.00082236860265577627 0.00054526867968515149
decision_type=2 2 2 2 2 2 2 2 2 2
left_child=1 3 -3 4 -1 6 -2 8 -8 -9
right_child=5 2 -4 -5 -6 -7 7 9 -10 -11
leaf_value=-0.00047395601782395888 0.0002838997863277438 -4.9515727335925811e-05 -0.00050392112148424188 -0.000392472516396083 -0.00060077696021094366 0.00011107357462275434 0.00014676788384255406 0.00022951864812057466 0.00017894853081088514 0.00019386112408124303
leaf_weight=27 21 22 26 20 27 22 29 20 86 95
leaf_count=27 21 22 26 20 27 22 29 20 86 95
internal_value=7.36806e-13 -0.000418513 -0.000295652 -0.000498206 -0.000537366 0.000187028 0.000193685 0.000185448 0.000170833 0.000200062
internal_weight=395 122 48 74 54 273 251 230 115 115
internal_count=395 122 48 74 54 273 251 230 115 115
is_linear=0
shrinkage=0.1


Tree=21
num_leaves=10
num_cat=0
split_feature=40 12 19 0 40 17 0 19 35
split_gain=0.00251305 0.000138937 4.28028e-05 3.98657e-05 3.26751e-05 1.18121e-05 3.77751e-06 3.2032e-06 2.58018e-06
threshold=0.81280000000000008 -0.00037500002343748834 73.100650793881769 0.79875000000000007 0.8488500000000001 55512675.513116673 0.85285000000000011 62.361097157025192 1.0006573238652947
decision_type=2 2 2 2 2 2 2 2 2
left_child=1 -1 3 -3 -2 -6 8 -8 -7
right_child=4 2 -4 -5 5 6 7 -9 -10
leaf_value=-0.00021328738555038241 4.2522680741967635e-05 -0.0006005765069276095 -0.00036556206614477563 -0.00042371712759352076 0.00024902786040911453 0.00015579534967680677 0.00017160558998252133 0.00021903831730014646 0.00018644349166767346
leaf_weight=34 20 25 34 26 20 143 35 24 34
leaf_count=34 20 25 34 26 20 143 35 24 34
internal_value=1.16415e-12 -0.000384134 -0.000452473 -0.000510413 0.000165623 0.00017524 0.000168987 0.0001909 0.000161683
internal_weight=395 119 85 51 276 256 236 59 177
internal_count=395 119 85 51 276 256 236 59 177
is_linear=0
shrinkage=0.1


Tree=22
num_leaves=14
num_cat=0
split_feature=37 5 26 21 36 29 15 40 16 29 26 23 36
split_gain=0.00204349 0.000167449 0.000336648 7.93088e-05 6.86185e-05 6.05609e-06 5.83789e-06 4.90064e-06 4.79727e-06 2.98333e-06 2.13554e-06 2.07268e-06 1.64577e-06
threshold=15922492.133750014 0.99877466301317774 0.0019519318388531834 2907567.1660156655 0.0019140818360804035 48.267613877400102 0.99992956162834334 0.85245000000000015 0.00054526867968515149 22.788457498705494 0.00080268579847222782 0.85321000000000013 0.00082888486862684244
decision_type=2 2 2 2 2 2 2 2 2 2 2 2 2
left_child=1 2 -1 4 -3 8 -7 10 -2 -10 -8 -9 -11
right_child=5 3 -4 -5 -6 6 7 11 9 12 -12 -13 -14
leaf_value=0.00012584096195496387 0.00018456090852851049 -0.00044152996701849324 -0.00041987352686611798 -0.00055782575426357127 -0.00020395004074089232 0.0002101750539233243 0.00012591942355263597 0.00016482734073210381 0.00016639595298329369 0.00010783819556021819 0.00016547316834995791 0.00020607912724482873 0.00013500192651042233
leaf_weight=20 20 31 26 28 20 28 39 29 20 38 21 21 54
leaf_count=20 20 31 26 28 20 28 39 29 20 38 21 21 54
internal_value=-1.42019e-12 -0.000334284 -0.000182606 -0.000422602 -0.000348361 0.000154761 0.000169408 0.000159031 0.000139448 0.000131392 0.000139763 0.000182153 0.000123782
internal_weight=395 125 46 79 51 270 138 110 132 112 60 50 92
internal_count=395 125 46 79 51 270 138 110 132 112 60 50 92
is_linear=0
shrinkage=0.1


Tree=23
num_leaves=10
num_cat=0
split_feature=40 2 7 26 9 0 43 9 13
split_gain=0.0016605 0.000127264 4.91523e-05 5.06637e-05 2.42419e-05 1.70965e-05 4.98169e-06 3.13517e-06 2.52742e-06
threshold=0.81280000000000008 -0.00037514068362010095 1502161.7840278281 0.0019140818360804035 76.871643735346566 0.8488500000000001 0.85069000000000006 66.666652407411121 0.85048000000000012
decision_type=2 2 2 2 2 2 2 2 2
left_child=1 -1 -3 -4 5 -2 8 -8 -7
right_child=4 2 3 -5 -6 6 7 -9 -10
leaf_value=-0.0001453054968310012 0.00023229234153404832 -0.00048806510242650769 -0.00022076992908506119 -0.00040742115216386141 3.6335940746104589e-05 0.00012806128997234974 0.000140045622478154 0.00017815991651822026 9.0112321595370309e-05
leaf_weight=33 20 27 26 33 23 54 127 26 26
leaf_count=33 20 27 26 33 23 54 127 26 26
internal_value=8.47327e-14 -0.00031225 -0.00037631 -0.000325168 0.00013463 0.000143565 0.000135949 0.000146523 0.000115728
internal_weight=395 119 86 59 276 253 233 153 80
internal_count=395 119 86 59 276 253 233 153 80
is_linear=0
shrinkage=0.1


Tree=24
num_leaves=10
num_cat=0
split_feature=44 0 27 48 36 33 4 13 16
split_gain=0.00135742 0.000161551 0.000433367 7.18442e-05 5.58569e-05 7.91068e-06 8.04129e-06 4.19924e-06 2.3566e-06
threshold=0.81045000000000023 0.80145000000000011 1962380.9141556823 0.7543262474890422 0.0022109433944137598 0.8490000000000002 0.84940000000000004 0.85418000000000005 0.00050938238935084861
decision_type=2 2 2 2 2 2 2 2 2
left_child=1 2 4 -3 -1 -2 -7 8 -8
right_child=5 3 -4 -5 -6 6 7 -9 -10
leaf_value=-0.00042987565682088991 6.7607295024648325e-05 -0.00052416998078115291 0.00021084515472466595 -0.00028268480752806433 -0.00021572729594828118 0.00018693649908527732 0.00014909005469896579 0.00016607687401119621 0.00011449909183588813
leaf_weight=29 24 28 20 22 21 21 22 20 188
leaf_count=29 24 28 20 22 21 21 22 20 188
internal_value=2.89657e-13 -0.00028063 -0.000182568 -0.000417917 -0.000339933 0.000122457 0.000127701 0.000122293 0.000118123
internal_weight=395 120 70 50 50 275 251 230 210
internal_count=395 120 70 50 50 275 251 230 210
is_linear=0
shrinkage=0.1


Tree=25
num_leaves=13
num_cat=0
split_feature=47 38 43 8 8 40 26 14 5 23 41 28
split_gain=0.00110478 0.00010197 0.000228484 4.12937e-05 2.56691e-05 7.20614e-06 1.50481e-05 6.28531e-06 6.13441e-06 2.929e-06 2.92592e-06 1.6133e-06
threshold=7228688.5622182349 0.55318584509228408 0.80019000000000007 0.76377045811127042 0.51020554312454636 0.85105000000000008 0.00099614442796483352 0.85001500000000008 0.99942532556276276 0.85418000000000005 26650822.51345 1.5957046640870887
decision_type=2 2 2 2 2 2 2 2 2 2 2 2
left_child=1 2 -1 4 -3 6 8 -7 -2 10 -9 -10
right_child=5 3 -4 -5 -6 7 -8 9 11 -11 -12 -13
leaf_value=0.00012062707508448512 0.00014712355933359808 -0.00030757277279256165 -0.00034638246129774914 -0.00023896332644948715 -0.0004621403588403371 0.00017845436232164503 1.4269789771788056e-05 9.5264503030463219e-05 8.2110230204821363e-05 0.00015360177902039142 0.00012747869687870152 0.00011409342171949295
leaf_weight=20 30 22 22 37 21 20 20 54 46 20 59 24
leaf_count=20 30 22 22 37 21 20 20 54 46 20 59 24
internal_value=3.28828e-13 -0.000250173 -0.000123997 -0.000316415 -0.000383059 0.000111799 9.34535e-05 0.000126187 0.00010929 0.000118328 0.000112084 9.30759e-05
internal_weight=395 122 42 80 43 273 120 153 100 133 113 70
internal_count=395 122 42 80 43 273 120 153 100 133 113 70
is_linear=0
shrinkage=0.1


Tree=26
num_leaves=10
num_cat=0
split_feature=17 6 19 40 36 7 29 15 19
split_gain=0.000913013 0.000395731 0.000243534 0.000152001 4.05327e-05 4.35808e-05 5.57403e-06 4.96805e-06 2.6236e-06
threshold=3337681.288299141 0.0031188328669051208 21.320341392005606 0.80690000000000006 0.0022109433944137598 1510969.1165959344 47.165769163278568 0.99992956162834334 49.999987800483787
decision_type=2 2 2 2 2 2 2 2 2
left_child=3 2 -2 4 5 -1 8 -8 -4
right_child=1 -3 6 -5 -6 -7 7 -9 -10
leaf_value=-0.00047639416879974306 0.0004619567932968494 -0.00031492971889251337 9.142676625775625e-05 -8.4171208982297694e-07 -0.00021708880701680757 -0.00029134812132854549 0.00015024782343451599 0.00010293389799886071 5.6027651511872796e-05
leaf_weight=20 20 22 83 20 32 35 28 107 28
leaf_count=20 20 22 83 20 32 35 28 107 28
internal_value=8.74036e-13 9.26693e-05 0.00012638 -0.000249428 -0.000306574 -0.000358638 9.90978e-05 0.000112747 8.24973e-05
internal_weight=395 288 266 107 87 55 246 135 111
internal_count=395 288 266 107 87 55 246 135 111
is_linear=0
shrinkage=0.1


Tree=27
num_leaves=9
num_cat=0
split_feature=7 26 9 40 47 47 23 14
split_gain=0.000739827 0.000396239 0.000252979 6.49871e-05 2.21264e-05 4.29026e-05 2.10528e-05 6.34966e-06
threshold=3053644.3987304573 0.0020361466808328354 21.525091801238542 0.80505000000000015 1351701.8014406485 1795619.4466597734 0.8490700000000001 0.84945000000000004
decision_type=2 2 2 2 2 2 2 2
left_child=3 2 -2 4 -1 -6 -4 -8
right_child=1 -3 6 -5 5 -7 7 -9
leaf_value=-0.00036151537313581567 0.00043737617961596702 -0.00034889813978224995 -1.2120951881418781e-05 -9.8919208290613753e-05 -0.00014561193905440935 -0.00032781632918548506 0.00014631596641265788 8.7348207932033507e-05
leaf_weight=23 22 20 21 27 24 28 20 210
leaf_count=23 22 20 21 27 24 28 20 210
internal_value=5.06094e-13 8.07482e-05 0.000112224 -0.000231953 -0.000279845 -0.000243722 8.37247e-05 9.24758e-05
internal_weight=395 293 273 102 75 52 251 230
internal_count=395 293 273 102 75 52 251 230
is_linear=0
shrinkage=0.1


Tree=28
num_leaves=9
num_cat=0
split_feature=7 26 6 40 36 7 23 29
split_gain=0.00059926 0.000320954 0.000233738 5.26396e-05 2.08466e-05 3.89292e-05 7.97471e-06 5.08612e-06
threshold=3053644.3987304573 0.0020361466808328354 0.0012342612279285087 0.80505000000000015 0.0022109433944137598 1510969.1165959344 0.8490700000000001 42.857130357145543
decision_type=2 2 2 2 2 2 2 2
left_child=3 2 6 4 5 -1 -2 -8
right_child=1 -3 -4 -5 -6 -7 7 -9
leaf_value=-0.00039759526262059811 1.4387573698968482e-05 -0.00031400832813233137 0.00043010227152080917 -8.9027285351524676e-05 -0.00017948421811105129 -0.00021624354471739559 6.1047837427667087e-05 9.1592482331242085e-05
leaf_weight=20 20 20 20 27 26 29 87 146
leaf_count=20 20 20 20 27 26 29 87 146
internal_value=4.90436e-13 7.26734e-05 0.000101002 -0.000208758 -0.000251861 -0.000290265 7.49858e-05 8.01874e-05
internal_weight=395 293 273 102 75 49 253 233
internal_count=395 293 273 102 75 49 253 233
is_linear=0
shrinkage=0.1


Tree=29
num_leaves=11
num_cat=0
split_feature=17 6 34 40 19 28 5 0 9 16
split_gain=0.000489102 0.00022629 0.000243222 8.81079e-05 2.91122e-05 3.37614e-05 2.00836e-05 3.11682e-06 3.23935e-06 1.42171e-06
threshold=3337681.288299141 0.0031188328669051208 0.84924500000000014 0.80690000000000006 20.604628220178288 1.0967090490684501 0.99839165042941391 0.85285000000000011 62.645338257590005 0.0011164771148753885
decision_type=2 2 2 2 2 2 2 2 2 2
left_child=3 2 -2 4 6 -6 -1 9 -9 -4
right_child=1 -3 7 -5 5 -7 -8 8 -10 -11
leaf_value=-0.00021781288193200123 0.00042867949305218649 -0.00024039784673897722 6.2588843193835356e-05 6.7007047255174255e-06 -0.00024884638933144745 -7.292604626854882e-05 -0.00035453347137220031 6.601882855142726e-05 0.00011234080081451865 3.4348014023635189e-05
leaf_weight=22 20 22 164 20 24 20 21 36 26 20
leaf_count=22 20 22 164 20 24 20 21 36 26 20
internal_value=-7.60982e-14 6.78261e-05 9.33183e-05 -0.00018256 -0.000226068 -0.000168883 -0.000284583 6.60531e-05 8.54442e-05 5.95192e-05
internal_weight=395 288 266 107 87 44 43 246 62 184
internal_count=395 288 266 107 87 44 43 246 62 184
is_linear=0
shrinkage=0.1


Tree=30
num_leaves=10
num_cat=0
split_feature=17 6 27 40 36 7 29 49 49
split_gain=0.000396172 0.000183295 0.0002102 7.13674e-05 2.86519e-05 2.43142e-05 3.86756e-06 5.19998e-06 2.01723e-06
threshold=3337681.288299141 0.0031188328669051208 55530528.526416674 0.80690000000000006 0.0022109433944137598 1510969.1165959344 48.267613877400102 44.092714678784475 49.999987800483787
decision_type=2 2 2 2 2 2 2 2 2
left_child=3 2 -2 4 5 -1 8 -8 -4
right_child=1 -3 6 -5 -6 -7 7 -9 -10
leaf_value=-0.00033519116172101352 0.00039575173861521761 -0.00021635806267361409 5.3443320767870276e-05 6.0306346495053739e-06 -0.00012822565468013637 -0.00019697383545073016 0.00011275646887346131 6.1021953090447843e-05 2.3822845108248481e-05
leaf_weight=20 20 22 89 20 32 35 24 102 31
leaf_count=20 20 22 89 20 32 35 24 102 31
internal_value=-3.12912e-13 6.10435e-05 8.39864e-05 -0.000164304 -0.000203461 -0.000247235 5.86397e-05 7.08761e-05 4.57914e-05
internal_weight=395 288 266 107 87 55 246 126 120
internal_count=395 288 266 107 87 55 246 126 120
is_linear=0
shrinkage=0.1


end of trees

feature_importances:
Column_40=87
Column_27=19
Column_47=17
Column_30=15
Column_7=13
Column_26=13
Column_37=12
Column_17=10
Column_19=10
Column_23=10
Column_36=10
Column_49=10
Column_29=9
Column_0=8
Column_5=8
Column_6=8
Column_9=8
Column_13=6
Column_15=6
Column_16=6
Column_22=6
Column_33=6
Column_4=5
Column_11=5
Column_12=5
Column_14=5
Column_28=5
Column_35=5
Column_41=5
Column_43=5
Column_46=4
Column_1=3
Column_20=3
Column_24=3
Column_32=3
Column_48=3
Column_8=2
Column_10=2
Column_21=2
Column_38=2
Column_39=2
Column_42=2
Column_2=1
Column_25=1
Column_31=1
Column_34=1
Column_44=1

parameters:
[boosting: gbdt]
[objective: regression]
[metric: l2]
[tree_learner: serial]
[device_type: cpu]
[data_sample_strategy: bagging]
[data: ]
[valid: ]
[num_iterations: 50]
[learning_rate: 0.1]
[num_leaves: 31]
[num_threads: 24]
[seed: 42]
[deterministic: 0]
[force_col_wise: 0]
[force_row_wise: 0]
[histogram_pool_size: -1]
[max_depth: 5]
[min_data_in_leaf: 20]
[min_sum_hessian_in_leaf: 0.001]
[bagging_fraction: 1]
[pos_bagging_fraction: 1]
[neg_bagging_fraction: 1]
[bagging_freq: 0]
[bagging_seed: 400]
[bagging_by_query: 0]
[feature_fraction: 1]
[feature_fraction_bynode: 1]
[feature_fraction_seed: 30056]
[extra_trees: 0]
[extra_seed: 12879]
[early_stopping_round: 0]
[early_stopping_min_delta: 0]
[first_metric_only: 0]
[max_delta_step: 0]
[lambda_l1: 0]
[lambda_l2: 0]
[linear_lambda: 0]
[min_gain_to_split: 0]
[drop_rate: 0.1]
[max_drop: 50]
[skip_drop: 0.5]
[xgboost_dart_mode: 0]
[uniform_drop: 0]
[drop_seed: 17869]
[top_rate: 0.2]
[other_rate: 0.1]
[min_data_per_group: 100]
[max_cat_threshold: 32]
[cat_l2: 10]
[cat_smooth: 10]
[max_cat_to_onehot: 4]
[top_k: 20]
[monotone_constraints: ]
[monotone_constraints_method: basic]
[monotone_penalty: 0]
[feature_contri: ]
[forcedsplits_filename: ]
[refit_decay_rate: 0.9]
[cegb_tradeoff: 1]
[cegb_penalty_split: 0]
[cegb_penalty_feature_lazy: ]
[cegb_penalty_feature_coupled: ]
[path_smooth: 0]
[interaction_constraints: ]
[verbosity: -1]
[saved_feature_importance_type: 0]
[use_quantized_grad: 0]
[num_grad_quant_bins: 4]
[quant_train_renew_leaf: 0]
[stochastic_rounding: 1]
[linear_tree: 0]
[max_bin: 255]
[max_bin_by_feature: ]
[min_data_in_bin: 3]
[bin_construct_sample_cnt: 200000]
[data_random_seed: 175]
[is_enable_sparse: 1]
[enable_bundle: 1]
[use_missing: 1]
[zero_as_missing: 0]
[feature_pre_filter: 1]
[pre_partition: 0]
[two_round: 0]
[header: 0]
[label_column: ]
[weight_column: ]
[group_column: ]
[ignore_column: ]
[categorical_feature: ]
[forcedbins_filename: ]
[precise_float_parser: 0]
[parser_config_file: ]
[objective_seed: 16083]
[num_class: 1]
[is_unbalance: 0]
[scale_pos_weight: 1]
[sigmoid: 1]
[boost_from_average: 1]
[reg_sqrt: 0]
[alpha: 0.9]
[fair_c: 1]
[poisson_max_delta_step: 0.7]
[tweedie_variance_power: 1.5]
[lambdarank_truncation_level: 30]
[lambdarank_norm: 1]
[label_gain: ]
[lambdarank_position_bias_regularization: 0]
[eval_at: ]
[multi_error_top_k: 1]
[auc_mu_weights: ]
[num_machines: 1]
[local_listen_port: 12400]
[time_out: 120]
[machine_list_filename: ]
[machines: ]
[gpu_platform_id: -1]
[gpu_device_id: -1]
[gpu_use_dp: 0]
[num_gpu: 1]

end of parameters

pandas_categorical:null
