tree
version=v4
num_class=1
num_tree_per_iteration=1
label_index=0
max_feature_idx=49
objective=regression
feature_names=Column_0 Column_1 Column_2 Column_3 Column_4 Column_5 Column_6 Column_7 Column_8 Column_9 Column_10 Column_11 Column_12 Column_13 Column_14 Column_15 Column_16 Column_17 Column_18 Column_19 Column_20 Column_21 Column_22 Column_23 Column_24 Column_25 Column_26 Column_27 Column_28 Column_29 Column_30 Column_31 Column_32 Column_33 Column_34 Column_35 Column_36 Column_37 Column_38 Column_39 Column_40 Column_41 Column_42 Column_43 Column_44 Column_45 Column_46 Column_47 Column_48 Column_49
feature_infos=[964.70000000000005:1060.99] [0:294547.04399999999] [-0.012983563896226125:0.03297054071768013] [966.48842235429834:1060.5] [967.43375791063704:1060.3470000000002] [0.99346471831629746:1.025682357397699] [0:0.015016437109576711] [1604.7976345:187815.0953628] [0:2.9925971056119405] [0:99.999999993791306] [964.70000000000005:1060.99] [0:294547.04399999999] [-0.012983563896226125:0.03297054071768013] [966.48842235429834:1060.5] [967.43375791063704:1060.3470000000002] [0.99346471831629746:1.025682357397699] [0.00016421584812471483:0.015016437109576711] [1604.7976345:187815.0953628] [0:2.9925971056119405] [0:99.999999993791306] [964.70000000000005:1060.99] [0:294547.04399999999] [-0.012983563896226125:0.03297054071768013] [966.48842235429834:1060.5] [967.43375791063704:1060.3470000000002] [0.99346471831629746:1.025682357397699] [0.00016421584812471483:0.015016437109576711] [1604.7976345:187815.0953628] [0:2.9925971056119405] [0:99.999999993791306] [964.70000000000005:1060.99] [0:294547.04399999999] [-0.012983563896226125:0.03297054071768013] [966.48842235429834:1060.5] [967.43375791063704:1060.3470000000002] [0.99346471831629746:1.025682357397699] [0.00016421584812471483:0.015016437109576711] [1604.7976345:187815.0953628] [0:2.9925971056119405] [0:99.999999993791306] [964.70000000000005:1060.99] [0:294547.04399999999] [-0.012983563896226125:0.03297054071768013] [966.48842235429834:1060.5] [967.43375791063704:1060.3470000000002] [0.99346471831629746:1.025682357397699] [0.00016421584812471483:0.015016437109576711] [1604.7976345:187815.0953628] [0:2.9925971056119405] [0:99.999999993791306]
tree_sizes=1236 1185 1106 1266 1268 1110 1261 1266 1270 1186 1271 1275 1200 1420 1207 1210 1136 1215 1222 1134 1222 1134 1135 1140 1305

Tree=0
num_leaves=14
num_cat=0
split_feature=44 20 41 43 20 40 15 19 40 7 20 40 13
split_gain=416316 56522 15992.7 2110.05 1966.6 653.203 377.752 273.329 217.066 166.184 106.916 79.5382 53.5047
threshold=1013.6250398218784 985.62000000000012 22066.213637000004 975.38135822115999 1000.6700000000002 1053.5550000000001 1.0008370872172569 67.330914990771049 1058.4000000000003 5984.2854342083347 972.25000000000011 1055.9500000000003 1008.6277816891339
decision_type=2 2 2 2 2 2 2 2 2 2 2 2 2
left_child=1 3 -2 7 -3 -4 12 10 11 -5 -1 -7 -6
right_child=2 4 5 9 6 8 -8 -9 -10 -11 -12 -13 -14
leaf_value=1010.7048826567287 1016.7900878296472 1013.59957107049 1018.8890636844187 1011.9077677495186 1014.4462767122366 1019.2628919412222 1015.0856877602174 1011.1954020546057 1019.7263722084142 1011.5094840858557 1010.9707992045545 1019.4437248085119 1014.6775874469854
leaf_weight=54 30 20 28 22 20 43 21 20 20 20 21 56 20
leaf_count=54 30 20 28 22 20 43 21 20 20 20 21 56 20
internal_value=1015.29 1012.37 1018.89 1011.13 1014.46 1019.32 1014.74 1010.87 1019.43 1011.72 1010.78 1019.37 1014.56
internal_weight=395 218 177 137 81 147 61 95 119 42 75 99 40
internal_count=395 218 177 137 81 147 61 95 119 42 75 99 40
is_linear=0
shrinkage=1


Tree=1
num_leaves=13
num_cat=0
split_feature=33 20 41 20 40 40 25 43 40 4 40 9
split_gain=337241 45774.5 12945.8 1713.64 1618.34 531.623 370.033 349.272 161.946 86.9836 49.4702 21.7339
threshold=1015.1168725493077 985.62000000000012 22066.213637000004 977.07070168201437 1001.832427021627 1054.3600000000004 1.0013461923670615 972.19715276714362 1058.4000000000003 970.27798740432002 1055.9500000000003 49.905265306285223
decision_type=2 2 2 2 2 2 2 2 2 2 2 2
left_child=1 3 -2 7 -3 -4 11 9 10 -1 -7 -6
right_child=2 4 5 -5 6 8 -8 -9 -10 -11 -12 -13
leaf_value=-3.9637618120978857 1.3496400717521708 -1.5038939782551357 3.2824079625746787 -3.1064339637756349 -0.73322611331939702 3.5881700257997253 -0.13270820379257203 -3.695074968080263 3.9915638732910157 -4.1899627012365004 3.7371810913085941 -0.58580197572708126
leaf_weight=34 30 21 34 32 20 37 20 37 20 34 56 20
leaf_count=34 30 21 34 32 20 37 20 37 20 34 56 20
internal_value=-2.81e-08 -2.63288 3.24275 -3.74708 -0.748352 3.6291 -0.483912 -3.94233 3.73341 -4.07686 3.6779 -0.659514
internal_weight=395 218 177 137 81 147 60 105 113 68 93 40
internal_count=395 218 177 137 81 147 60 105 113 68 93 40
is_linear=0
shrinkage=0.1


Tree=2
num_leaves=12
num_cat=0
split_feature=44 23 41 10 43 40 16 19 40 20 40
split_gain=273299 37130.2 10443.1 2062.46 1076.93 439.452 245.5 199.162 141.196 71.6609 50.1444
threshold=1013.6250398218784 981.2981916636262 22066.213637000004 997.09313693509546 975.38135822115999 1053.5550000000001 0.0025092829830935131 67.330914990771049 1058.4000000000003 972.25000000000011 1055.9500000000003
decision_type=2 2 2 2 2 2 2 2 2 2 2
left_child=1 4 -2 -3 7 -4 -5 9 10 -1 -7
right_child=2 3 5 6 -6 8 -8 -9 -10 -11 -12
leaf_value=-3.7208240509033206 1.2188850382963816 -1.6082186138629915 2.9097452708653044 -0.63465121803861679 -2.9610012690226242 3.2198809690253682 -0.24274888384726739 -3.3047108936309812 3.5924073028564454 -3.5031206130981447 3.3634632076535911
leaf_weight=54 30 20 28 33 39 43 31 20 20 21 56
leaf_count=54 30 20 28 33 39 43 31 20 20 21 56
internal_value=2.3359e-08 -2.37017 2.91919 -0.721822 -3.40346 3.26619 -0.444824 -3.5851 3.35006 -3.65987 3.3011
internal_weight=395 218 177 84 134 147 64 95 119 75 99
internal_count=395 218 177 84 134 147 64 95 119 75 99
is_linear=0
shrinkage=0.1


Tree=3
num_leaves=14
num_cat=0
split_feature=20 13 41 10 20 40 20 19 20 40 9 40 19
split_gain=221449 31086 7450.93 1723.01 877.143 355.956 259.273 144.343 136.405 114.369 55.119 40.726 38.2278
threshold=1018.5076281326964 981.22419166362624 22066.213637000004 997.09313693509546 973.91000000000008 1053.5550000000001 1010.2450000000001 66.548735261154476 977.45500000000004 1058.4000000000003 48.415103442480223 1056.2200000000003 42.361259990209746
decision_type=2 2 2 2 2 2 2 2 2 2 2 2 2
left_child=1 4 -2 -3 7 -4 10 12 -6 11 -5 -7 -1
right_child=2 3 5 6 8 9 -8 -9 -10 -11 -12 -13 -14
leaf_value=-3.3980156838893891 1.1597069765840258 -1.4410830128937961 2.6187708445957729 -0.64070598125457767 -2.8980700174967451 2.9061995953929669 -0.091434693052655169 -3.0128781223297119 -2.5523577423095705 3.2331666183471683 -0.41797943925857545 3.0344830474853519 -3.2477990680270725
leaf_weight=32 28 20 28 20 21 49 21 20 25 20 25 50 36
leaf_count=32 28 20 28 20 21 49 21 20 25 20 25 50 36
internal_value=1.21133e-08 -2.11177 2.65479 -0.62797 -3.06405 2.93957 -0.381572 -3.24903 -2.71018 3.01505 -0.516969 2.97099 -3.31849
internal_weight=395 220 175 86 134 147 66 88 46 119 45 99 68
internal_count=395 220 175 86 134 147 66 88 46 119 45 99 68
is_linear=0
shrinkage=0.1


Tree=4
num_leaves=14
num_cat=0
split_feature=33 13 41 10 20 40 25 19 20 40 0 37 40
split_gain=179489 24355.2 6794.8 1327.69 710.486 288.324 222.135 116.918 110.488 92.639 38.0323 34.2441 33.7357
threshold=1015.1168725493077 981.22419166362624 22066.213637000004 997.09313693509546 973.91000000000008 1053.5550000000001 1.0015728369939243 66.548735261154476 977.45500000000004 1058.4000000000003 1009.0609358304555 7673.862322375001 1055.9500000000003
decision_type=2 2 2 2 2 2 2 2 2 2 2 2 2
left_child=1 4 -2 -3 7 -4 10 11 -6 12 -5 -1 -7
right_child=2 3 5 6 8 9 -8 -9 -10 -11 -12 -13 -14
leaf_value=-2.9408332864443465 0.99420039832592022 -1.2969746744632722 2.3568937846592495 -0.58999742042450676 -2.6082630339122956 2.6072729864785842 -0.096953798191887999 -2.7115902900695801 -2.2971219902038573 2.909850006103516 -0.40185370499437512 -3.0965773582458498 2.7250429357801167
leaf_weight=48 30 20 28 21 21 43 21 20 25 20 22 20 56
leaf_count=48 30 20 28 21 21 43 21 20 25 20 22 20 56
internal_value=1.54218e-08 -1.92079 2.36571 -0.585789 -2.75765 2.64561 -0.363543 -2.92413 -2.43916 2.71355 -0.493738 -2.98664 2.67389
internal_weight=395 218 177 84 134 147 64 88 46 119 43 68 99
internal_count=395 218 177 84 134 147 64 88 46 119 43 68 99
is_linear=0
shrinkage=0.1


Tree=5
num_leaves=12
num_cat=0
split_feature=14 3 41 20 43 40 43 46 40 4 40
split_gain=145559 20703.7 4486.61 938.192 533.823 234.77 173.434 173.371 68.99 51.2772 21.311
threshold=1013.6250398218784 985.46140831317859 22066.213637000004 977.07070168201437 1006.4754174464848 1054.3600000000004 972.19715276714362 0.0031111751946060018 1058.4000000000003 970.45787850586464 1056.2200000000003
decision_type=2 2 2 2 2 2 2 2 2 2 2
left_child=1 3 -2 6 -3 -4 9 -6 10 -1 -7
right_child=2 4 5 -5 7 8 -8 -9 -10 -11 -12
leaf_value=-2.6089300155639652 0.97858300076935589 -0.7939099930778698 2.1506625792559455 -1.9911742319379535 -0.41569419934831819 2.3625186476596567 -2.4147776887223529 -0.056345363497734072 2.618865089416504 -2.7845142430272598 2.4585303268432619
leaf_weight=39 27 27 34 35 29 43 37 25 20 29 50
leaf_count=39 27 27 34 35 29 43 37 25 20 29 50
internal_value=-8.20672e-09 -1.70333 2.16343 -2.43955 -0.430856 2.38105 -2.58901 -0.249329 2.45037 -2.68381 2.41414
internal_weight=395 221 174 140 81 147 105 54 113 68 93
internal_count=395 221 174 140 81 147 105 54 113 68 93
is_linear=0
shrinkage=0.1


Tree=6
num_leaves=14
num_cat=0
split_feature=20 23 47 20 10 40 40 20 40 20 47 4 40
split_gain=118137 12642.5 7802.15 662.806 593.405 475.127 193.965 69.9463 60.2516 55.8579 38.4023 34.5778 21.7049
threshold=1011.4900000000001 981.2981916636262 58955.146775166679 1025.6100000000004 997.09313693509546 974.08500000000015 1053.5550000000001 972.25000000000011 1058.4000000000003 977.45500000000004 8492.5989354583344 970.27798740432002 1055.9500000000003
decision_type=2 2 2 2 2 2 2 2 2 2 2 2 2
left_child=1 5 3 -2 -3 7 -4 11 12 -7 -6 -1 -8
right_child=2 4 6 -5 10 9 8 -9 -10 -11 -12 -13 -14
leaf_value=-2.3449144045511883 0.20969126962480092 -1.0477249795198442 1.9061380931309291 0.99511962803927345 -0.31653680875897411 -2.08630545242973 2.1132499872252 -2.2487321790059407 2.3569784927368165 -1.8659146060114322 -0.49011974036693573 -2.5016859896042769 2.2077143601008826
leaf_weight=24 21 20 28 22 25 23 43 30 20 23 26 34 56
leaf_count=24 21 20 28 22 25 23 43 30 20 23 26 34 56
internal_value=2.38702e-08 -1.66492 1.79636 0.611538 -0.586071 -2.23655 2.14295 -2.3727 2.19867 -1.97611 -0.40503 -2.43681 2.16668
internal_weight=395 205 190 43 71 134 147 88 119 46 51 58 99
internal_count=395 205 190 43 71 134 147 88 119 46 51 58 99
is_linear=0
shrinkage=0.1


Tree=7
num_leaves=14
num_cat=0
split_feature=20 23 47 20 10 40 40 23 19 40 20 46 49
split_gain=95691 10240.4 6319.74 536.873 480.658 384.853 157.112 62.8111 54.6916 48.804 45.2449 35.1904 19.7449
threshold=1011.4900000000001 981.2981916636262 58955.146775166679 1025.6100000000004 997.09313693509546 974.08500000000015 1053.5550000000001 971.60173842446204 42.361259990209746 1058.4000000000003 977.45500000000004 0.0034678197717592186 52.271942602689705
decision_type=2 2 2 2 2 2 2 2 2 2 2 2 2
left_child=1 5 3 -2 -3 7 -4 8 -1 12 -7 -6 -8
right_child=2 4 6 -5 11 10 9 -9 -10 -11 -12 -13 -14
leaf_value=-2.3309629344940186 0.18872213761011761 -0.94295246198773386 1.7155243464878627 0.89560768387534395 -0.43402561386426292 -1.8776748947475266 1.9169899940490724 -2.020866184849893 -2.1257136009834912 2.121280746459961 -1.6793232047039532 -0.26524342205375434 2.010405927385603
leaf_weight=20 21 20 28 22 30 23 64 31 37 20 23 21 35
leaf_count=20 21 20 28 22 30 23 64 31 37 20 23 21 35
internal_value=-4.60568e-09 -1.49843 1.61673 0.550385 -0.527464 -2.0129 1.92865 -2.13543 -2.19773 1.9788 -1.7785 -0.364527 1.95002
internal_weight=395 205 190 43 71 134 147 88 57 119 46 51 99
internal_count=395 205 190 43 71 134 147 88 57 119 46 51 99
is_linear=0
shrinkage=0.1


Tree=8
num_leaves=14
num_cat=0
split_feature=20 13 47 20 10 40 40 29 28 40 40 47 40
split_gain=77509.7 8313.61 5118.99 434.867 384.072 308.76 127.261 55.8198 57.4173 39.6554 36.4814 31.7921 15.5062
threshold=1011.4900000000001 981.22419166362624 58955.146775166679 1025.6100000000004 997.09313693509546 974.08500000000015 1053.5550000000001 42.821544789450328 1.0946037071567898 1058.1350000000002 977.7600000000001 8492.5989354583344 1056.2200000000003
decision_type=2 2 2 2 2 2 2 2 2 2 2 2 2
left_child=1 5 3 -2 -3 7 -4 -1 -9 12 -7 -6 -8
right_child=2 4 6 -5 11 10 9 8 -10 -11 -12 -13 -14
leaf_value=-2.0272426605224609 0.16984992424647016 -0.84512775346636781 1.5439718791416714 0.80604688660664991 -0.24755672825872899 -1.6912384281987731 1.7138560509195135 -1.9493700683116915 -1.7447564005851746 1.9021337335759942 -1.5131290269934614 -0.40549514620349963 1.7938246091206869
leaf_weight=32 21 20 28 22 25 23 49 32 24 22 23 26 48
leaf_count=32 21 20 28 22 25 23 49 32 24 22 23 26 48
internal_value=7.38928e-09 -1.34859 1.45506 0.495346 -0.473723 -1.81214 1.73579 -1.92188 -1.86168 1.78092 -1.60218 -0.328074 1.75343
internal_weight=395 205 190 43 71 134 147 88 56 119 46 51 97
internal_count=395 205 190 43 71 134 147 88 56 119 46 51 97
is_linear=0
shrinkage=0.1


Tree=9
num_leaves=13
num_cat=0
split_feature=20 0 41 20 25 43 40 23 25 4 47 40
split_gain=62790.3 8930.14 2027.81 577.142 172.83 115.94 104.058 70.237 52.4939 30.4063 27.8867 11.7541
threshold=1018.5076281326964 993.17374927274147 22066.213637000004 977.7600000000001 1.0015728369939243 972.19715276714362 1054.3600000000004 1007.6552570796347 1.0002995042040654 1055.1180000000004 7484.9232628750015 1056.2200000000003
decision_type=2 2 2 2 2 2 2 2 2 2 2 2
left_child=1 3 -2 5 7 10 -4 -3 -7 -8 -1 -11
right_child=2 4 6 -5 -6 8 9 -9 -10 11 -12 -13
leaf_value=-1.7251113952474393 0.63368078148258589 -0.47599358409643178 1.4088246962603401 -1.2101580403067851 0.0053729199550368572 -1.6764640535627091 1.7109713927559231 -0.23710545343346895 -1.4599702477455141 1.5408096558008439 -1.8637214024861652 1.613738306830911
leaf_weight=47 28 20 34 33 22 21 23 32 24 39 21 51
leaf_count=47 28 20 34 33 22 21 23 32 24 39 21 51
internal_value=1.08835e-09 -1.12449 1.41364 -1.57807 -0.229582 -1.68552 1.56221 -0.328986 -1.561 1.60836 -1.76792 1.58214
internal_weight=395 220 175 146 74 113 147 52 45 113 68 90
internal_count=395 220 175 146 74 113 147 52 45 113 68 90
is_linear=0
shrinkage=0.1


Tree=10
num_leaves=14
num_cat=0
split_feature=20 3 47 20 20 43 40 6 19 30 47 4 49
split_gain=50948.3 5485.87 3326.41 532.053 295.273 168.265 85.5775 58.2079 48.7447 29.1515 26.3185 13.7599 12.0481
threshold=1011.4900000000001 979.98159118792091 58955.146775166679 997.09313693509546 1025.6100000000004 972.46901455483919 1053.5550000000001 0.0030649130689704034 52.589335051358226 1058.4000000000003 5984.2854342083347 970.27798740432002 46.168260109728145
decision_type=2 2 2 2 2 2 2 2 2 2 2 2 2
left_child=1 5 4 -3 -2 10 -4 -7 -5 12 11 -1 -8
right_child=2 3 6 8 -6 7 9 -9 -10 -11 -12 -13 -14
leaf_value=-1.4741035509109499 0.13783996275493079 -0.81732907945459543 1.2486921855381556 -0.30721974093466997 0.66207411722703424 -1.2727496063008028 1.3875861589725202 -1.4715148302224967 -0.1082095292955637 1.5531163930892946 -1.6555126220949234 -1.5914061832427979 1.4574459258546222
leaf_weight=20 21 22 28 32 22 34 52 26 20 20 31 20 47
leaf_count=20 21 22 28 32 22 34 52 26 20 20 31 20 47
internal_value=-6.52256e-09 -1.09337 1.17969 -0.405087 0.406053 -1.48217 1.40599 -1.35888 -0.230677 1.443 -1.58635 -1.53275 1.42075
internal_weight=395 205 190 74 43 131 147 60 52 119 71 40 99
internal_count=395 205 190 74 43 131 147 60 52 119 71 40 99
is_linear=0
shrinkage=0.1


Tree=11
num_leaves=14
num_cat=0
split_feature=20 13 47 20 10 40 40 29 28 46 40 47 49
split_gain=41268.2 4447.91 2694.39 239.171 181.084 166.824 69.5399 39.25 39.0968 30.1922 24.5627 23.4229 10.8314
threshold=1011.4900000000001 981.22419166362624 58955.146775166679 1025.6100000000004 997.09313693509546 974.08500000000015 1052.5850000000003 42.821544789450328 1.0946037071567898 0.0034678197717592186 1058.4000000000003 5488.8632184999997 52.271942602689705
decision_type=2 2 2 2 2 2 2 2 2 2 2 2 2
left_child=1 5 3 -2 -3 7 -4 -1 -9 -6 12 -7 -8
right_child=2 4 6 -5 9 11 10 8 -10 -11 -12 -13 -14
leaf_value=-1.4921106427907944 0.12405597198577155 -0.59913770377635955 1.1134500350952148 0.59586673202839768 -0.30847801844278977 -1.090908061890375 1.2531022171475996 -1.4256392568349838 -1.2567959705988567 -0.1521409802227503 1.3978548240661621 -1.2341661682128908 1.3217411940438408
leaf_weight=32 21 20 25 22 30 21 67 32 24 21 20 25 35
leaf_count=32 21 20 25 22 30 21 67 32 24 21 20 25 35
internal_value=6.11278e-09 -0.984031 1.06172 0.365448 -0.344113 -1.32309 1.26539 -1.40376 -1.35328 -0.244104 1.29652 -1.16877 1.27665
internal_weight=395 205 190 43 71 134 147 88 56 51 122 46 102
internal_count=395 205 190 43 71 134 147 88 56 51 122 46 102
is_linear=0
shrinkage=0.1


Tree=12
num_leaves=13
num_cat=0
split_feature=14 0 16 40 21 47 23 30 16 6 19 17
split_gain=33448.4 4856.92 1150.41 323.533 153.407 117.534 94.0881 46.7791 43.6915 36.6192 33.6968 8.86096
threshold=1013.6250398218784 993.17374927274147 0.0022590238249704819 981.06423731624716 26519.634971000003 6922.2606147500001 971.60173842446204 1053.6600000000001 0.0034678197717592186 0.0030649130689704034 42.361259990209746 132242.86954360004
decision_type=2 2 2 2 2 2 2 2 2 2 2 2
left_child=1 3 4 6 -2 -3 10 -6 -7 -8 -1 -9
right_child=2 5 -4 -5 7 8 9 11 -10 -11 -12 -13
leaf_value=-1.4121847677230837 1.408633513677688 0.038299501438935596 0.49542295411229137 -0.79910773147236225 1.0025203875132971 -0.312264357642694 -1.0728939354419709 1.2038042980691661 -0.12775053736709416 -1.227174545288086 -1.2525331741724259 1.1322610078539168
leaf_weight=20 21 21 32 22 28 33 40 23 21 25 39 70
leaf_count=20 21 21 32 22 28 33 40 23 21 25 39 70
internal_value=6.90735e-09 -0.816521 1.03708 -1.15252 1.15914 -0.162443 -1.21522 1.11584 -0.240509 -1.13223 -1.30665 1.14995
internal_weight=395 221 174 146 142 75 124 121 54 65 59 93
internal_count=395 221 174 146 142 75 124 121 54 65 59 93
is_linear=0
shrinkage=0.1


Tree=13
num_leaves=16
num_cat=0
split_feature=20 3 47 20 41 43 40 47 6 0 4 4 28 23 4
split_gain=27165.7 2917.5 1768.82 299.875 169.055 95.509 49.443 38.0215 31.3236 24.6438 22.0914 18.0496 11.8988 6.61128 5.14133
threshold=1011.4900000000001 979.98159118792091 58955.146775166679 997.09313693509546 1272.1671720000002 972.19715276714362 1056.2200000000003 9348.9460695000016 0.0037890836451326669 1054.1700000000003 1055.4110000000003 970.45787850586464 1.014483268583211 1055.4760000000001 1057.133
decision_type=2 2 2 2 2 2 2 2 2 2 2 2 2 2 2
left_child=1 5 4 -3 -2 11 9 -5 12 -4 -8 -1 -7 -11 -12
right_child=2 3 6 7 -6 8 10 -9 -10 13 14 -13 -14 -15 -16
leaf_value=-1.1196804486788237 0.50990288376808168 -0.60593676350333481 0.89415352079603405 -0.097909547458402815 0.11237399992735492 -0.99651629491285854 1.1760865592956544 -0.27367207348346712 -1.0966023612022402 1.0521100914996604 1.0813284026251899 -1.2238539498427821 -0.89128020604451508 0.97915054603859231 1.0169890320819357
leaf_weight=39 20 22 27 32 23 22 20 20 20 23 27 29 21 27 23
leaf_count=39 20 22 27 32 23 22 20 20 20 23 27 29 21 27 23
internal_value=-1.24302e-09 -0.798384 0.861414 -0.296448 0.297271 -1.08192 1.02644 -0.165511 -0.993211 0.97114 1.08726 -1.16411 -0.945122 1.01271 1.05173
internal_weight=395 205 190 74 43 131 147 52 63 77 70 68 43 50 50
internal_count=395 205 190 74 43 131 147 52 63 77 70 68 43 50 50
is_linear=0
shrinkage=0.1


Tree=14
num_leaves=13
num_cat=0
split_feature=14 40 16 40 31 1 11 23 20 29 19 7
split_gain=22045.2 3171.91 773.792 196.803 141.66 64.907 67.4308 64.321 30.2412 27.5653 25.3473 8.88333
threshold=1013.6250398218784 994.23500000000001 0.0022590238249704819 981.06423731624716 26519.634971000003 1625.0370090000004 1890.5503235000003 971.60173842446204 1053.9400000000003 51.139687615246679 42.361259990209746 132242.86954360004
decision_type=2 2 2 2 2 2 2 2 2 2 2 2
left_child=1 3 4 7 -2 -3 -7 10 -6 -9 -1 -10
right_child=2 5 -4 -5 8 6 -8 9 11 -11 -12 -13
leaf_value=-1.1522269678115844 1.1817980675470261 -0.031229159096255898 0.39770950600504879 -0.65406322479248047 0.80932565927505495 -0.34796150227387751 -0.10011543748171435 -1.0107482864743187 0.98338932991027839 -0.87149614420804111 -1.0137605569301509 0.91066345429756268
leaf_weight=20 21 32 32 21 28 21 23 21 22 44 39 71
leaf_count=20 21 32 32 21 28 21 23 21 22 44 39 71
internal_value=-6.97902e-10 -0.662883 0.841938 -0.937159 0.942046 -0.139594 -0.218406 -0.985103 0.900436 -0.916485 -1.0607 0.927867
internal_weight=395 221 174 145 142 76 44 124 121 65 59 93
internal_count=395 221 174 145 142 76 44 124 121 65 59 93
is_linear=0
shrinkage=0.1


Tree=15
num_leaves=13
num_cat=0
split_feature=20 24 47 20 38 19 20 40 45 0 47 49
split_gain=17893.4 1905.03 1155.75 200.903 143.112 65.8545 48.3381 39.6848 35.5411 26.6034 18.6882 5.85007
threshold=1011.4900000000001 979.55106864009997 58955.146775166679 997.09313693509546 0.23248651783931087 71.99048542231931 973.68093018827165 1058.4000000000003 1.0005831245084804 1054.1700000000003 7484.9232628750015 54.110516220587435
decision_type=2 2 2 2 2 2 2 2 2 2 2 2
left_child=1 5 4 -3 -2 6 10 9 -5 -4 -1 -11
right_child=2 3 7 8 -6 -7 -8 -9 -10 11 -12 -13
leaf_value=-0.92550405447299677 0.43873551506549124 -0.49568233869292522 0.72380558649698901 -0.20598646581172941 0.072977362637934473 -0.72343386567157253 -0.81518138647079474 0.96343633174896248 -0.038648335407064721 0.81945709145587431 -1.0392494130134584 0.87175389105273826
leaf_weight=52 20 22 27 30 23 23 36 20 22 69 20 31
leaf_count=52 20 22 27 30 23 23 36 20 22 69 20 31
internal_value=8.21922e-10 -0.647959 0.699114 -0.242363 0.243097 -0.877074 -0.909794 0.832506 -0.13519 0.811887 -0.9571 0.835669
internal_weight=395 205 190 74 43 131 108 147 52 127 72 100
internal_count=395 205 190 74 43 131 108 147 52 127 72 100
is_linear=0
shrinkage=0.1


Tree=16
num_leaves=12
num_cat=0
split_feature=3 0 16 10 27 47 42 29 36 0 49
split_gain=14563.2 2159.23 420.166 143.484 122.339 95.1065 40.8695 34.0279 32.7161 21.3925 5.24636
threshold=1017.7031499502926 993.17374927274147 0.0022590238249704819 977.45500000000004 132134.54036420005 6889.6451591249997 3.7853361737338893e-05 42.821544789450328 0.0021065004420966686 1054.1700000000003 46.168260109728145
decision_type=2 2 2 2 2 2 2 2 2 2 2
left_child=1 3 4 7 -2 -3 -7 -1 -9 -6 -11
right_child=2 5 -4 -5 9 6 -8 8 -10 10 -12
leaf_value=-0.9010018050670624 0.98257006948644465 0.082291498929262172 0.3480903553423183 -0.58416531417104933 0.64951404333114626 -0.23864176624587607 -0.067042436013403151 -0.70486748639275054 -0.83547323075207791 0.7269708127391582 0.77483277653538907
leaf_weight=32 22 20 29 36 28 35 23 34 44 49 43
leaf_count=32 22 20 29 36 28 35 23 34 44 49 43
internal_value=1.59763e-09 -0.530522 0.694953 -0.757454 0.765791 -0.105751 -0.170594 -0.814167 -0.778543 0.726048 0.749341
internal_weight=395 224 171 146 142 78 58 110 78 120 92
internal_count=395 224 171 146 142 78 58 110 78 120 92
is_linear=0
shrinkage=0.1


Tree=17
num_leaves=13
num_cat=0
split_feature=40 3 16 29 20 48 40 19 9 36 29 17
split_gain=11802.3 1198.28 873.884 228.243 123.458 105.155 77.2421 48.4475 39.2392 36.8706 24.962 9.51766
threshold=1011.4900000000001 979.98159118792091 0.0032274243398347116 63.17566178490442 997.09313693509546 0.20233171621189983 1051.4700000000003 71.99048542231931 48.91551592249786 0.0010468890292066344 51.139687615246679 132242.86954360004
decision_type=2 2 2 2 2 2 2 2 2 2 2 2
left_child=1 7 5 -4 -3 -2 -7 9 -6 -1 -11 -8
right_child=2 4 3 -5 8 6 11 -9 -10 10 -12 -13
leaf_value=-0.61722646236419676 0.88085704985119051 -0.40129419104619468 -0.077619914497647977 0.39440596431493757 -0.22552242377772927 0.46890063150362532 0.73001566727956135 -0.5799443815065467 -0.044692878170559808 -0.81738707461255666 -0.71061929667868273 0.65861014184497657
leaf_weight=20 21 22 21 20 20 22 24 23 30 47 41 84
leaf_count=20 21 22 21 20 20 22 24 23 30 47 41 84
internal_value=5.95575e-10 -0.531604 0.56206 0.152637 -0.203885 0.673228 0.639688 -0.711724 -0.117025 -0.739788 -0.767643 0.674478
internal_weight=395 203 192 41 72 151 130 131 50 108 88 108
internal_count=395 203 192 41 72 151 130 131 50 108 88 108
is_linear=0
shrinkage=0.1


Tree=18
num_leaves=13
num_cat=0
split_feature=3 40 16 31 20 47 42 29 14 49 22 46
split_gain=9619.23 1404.17 266.799 109.01 93.2567 50.5028 36.0279 25.3357 24.2802 11.2333 6.0625 4.24185
threshold=1017.7031499502926 994.23500000000001 0.0022590238249704819 26519.634971000003 977.7600000000001 6889.6451591249997 3.7853361737338893e-05 42.821544789450328 970.13535837291579 37.393617069126627 -0.00018241036734578661 0.00069472986610843556
decision_type=2 2 2 2 2 2 2 2 2 2 2 2
left_child=1 4 3 -2 7 -3 -7 -1 -9 10 -5 -11
right_child=2 5 -4 9 -6 6 -8 8 -10 11 -12 -13
leaf_value=-0.73237488920038407 0.83156753494626001 0.040910010891301293 0.2884030854393696 0.50884951027956882 -0.46527065820991997 -0.20396751804543395 -0.042852646954681564 -0.6975008226210071 -0.58441908700125555 0.5948335129481096 0.57956762490449132 0.64902453422546391
leaf_weight=33 21 21 29 22 32 35 23 31 49 52 27 20
leaf_count=33 21 21 29 22 32 35 23 31 49 52 27 20
internal_value=-1.98855e-09 -0.431167 0.564804 0.621252 -0.615973 -0.0919666 -0.140077 -0.65865 -0.628238 0.584751 0.547817 0.609887
internal_weight=395 224 171 142 145 79 58 113 80 121 49 72
internal_count=395 224 171 142 145 79 58 113 80 121 49 72
is_linear=0
shrinkage=0.1


Tree=19
num_leaves=12
num_cat=0
split_feature=10 24 16 20 48 40 37 19 17 40 49
split_gain=7798.31 832.069 507.791 98.496 95.631 51.5645 33.9496 31.0333 31.6779 29.8236 8.01089
threshold=1011.4900000000001 978.59911044071475 0.0032274243398347116 997.09313693509546 0.20233171621189983 1051.4700000000003 9324.1523021666671 72.765558440681062 8589.671464750003 974.08500000000015 47.205830521416011
decision_type=2 2 2 2 2 2 2 2 2 2 2
left_child=1 7 4 -3 -2 -6 -5 8 9 -1 -7
right_child=2 3 -4 6 5 10 -8 -9 -10 -11 -12
leaf_value=-0.61227277242220368 0.7510262131690979 -0.33175851833820347 0.14242001450978792 -0.028655788505619225 0.37659789350899786 0.51927766799926756 -0.19376952044665816 -0.47133955047244119 -0.71778140187263495 -0.47757153294303206 0.57389786386489872
leaf_weight=65 20 25 39 33 22 58 20 21 20 22 50
leaf_count=65 20 25 39 33 22 58 20 21 20 22 50
internal_value=-1.25057e-09 -0.425597 0.463879 -0.168141 0.547458 0.51614 -0.0909629 -0.582485 -0.604298 -0.57821 0.544565
internal_weight=395 206 189 78 150 130 53 128 107 87 108
internal_count=395 206 189 78 150 130 53 128 107 87 108
is_linear=0
shrinkage=0.1


Tree=20
num_leaves=13
num_cat=0
split_feature=3 23 16 24 28 47 42 23 4 42 0 25
split_gain=6348.06 914.021 169.631 85.3571 76.2529 41.2865 31.363 26.1641 16.837 15.7383 13.3631 6.61787
threshold=1017.7031499502926 994.13649970909671 0.0035324513449927187 978.59911044071475 0.20128945961144476 6889.6451591249997 3.7853361737338893e-05 971.60173842446204 973.84312426574536 4.0367513226002856e-05 1054.1700000000003 0.99977675148641476
decision_type=2 2 2 2 2 2 2 2 2 2 2 2
left_child=1 3 4 7 -2 -3 -7 9 -9 -1 -6 -12
right_child=2 5 -4 -5 10 6 -8 8 -10 -11 11 -13
leaf_value=-0.61011514602563333 0.67967726506292825 0.057492901161313059 0.20617407236410226 -0.3067167895535628 0.41131747603416446 -0.16963316544013865 -0.014200893754050845 -0.43374237605503629 -0.5325483223971198 -0.50100698947906497 0.45996386175570286 0.51203433871269233
leaf_weight=39 20 20 23 21 30 34 21 35 34 20 46 52
leaf_count=39 20 20 23 21 30 34 21 35 34 20 46 52
internal_value=-2.68032e-09 -0.350264 0.458826 -0.493579 0.498089 -0.0655452 -0.110286 -0.524236 -0.482429 -0.573129 0.469716 0.487593
internal_weight=395 224 171 149 148 75 55 128 69 59 128 98
internal_count=395 224 171 149 148 75 55 128 69 59 128 98
is_linear=0
shrinkage=0.1


Tree=21
num_leaves=12
num_cat=0
split_feature=40 24 16 15 20 15 19 47 40 39 4
split_gain=5142.32 506.509 367.687 64.5172 60.298 33.5339 23.7999 25.9909 23.4231 20.8578 5.55184
threshold=1011.4900000000001 978.59911044071475 0.0035324513449927187 0.99915058289251613 997.09313693509546 0.99975313487938278 72.765558440681062 7673.862322375001 1051.7700000000002 48.324923914607304 1055.3420000000003
decision_type=2 2 2 2 2 2 2 2 2 2 2
left_child=1 6 3 -2 -3 -6 7 9 -5 -1 -10
right_child=2 4 -4 8 5 -7 -8 -9 10 -11 -12
leaf_value=-0.52419310266321362 0.60832821369171153 -0.27134778827428818 0.096908329389034181 0.31877401911077047 -0.18144096702337265 -0.014273700378835203 -0.37447874205453058 -0.57790679106345544 0.47152772525261188 -0.42091725642482447 0.42070130267775208
leaf_weight=33 20 25 39 21 20 30 21 26 29 48 83
leaf_count=33 20 25 39 21 20 30 21 26 29 48 83
internal_value=-5.819e-10 -0.3509 0.371004 0.440871 -0.144543 -0.0811406 -0.471813 -0.490916 0.41569 -0.462993 0.433862
internal_weight=395 203 192 153 75 50 128 107 133 81 112
internal_count=395 203 192 153 75 50 128 107 133 81 112
is_linear=0
shrinkage=0.1


Tree=22
num_leaves=12
num_cat=0
split_feature=3 3 35 28 40 24 12 37 4 29 4
split_gain=4201.93 589.319 129.793 92.552 67.5934 54.8883 32.0913 34.4454 26.4073 20.3485 20.2302
threshold=1017.7031499502926 993.15861953047647 0.9989512767002986 0.20128945961144476 1051.4700000000003 978.59911044071475 0.00056046733573633667 9324.1523021666671 1054.8770000000002 42.821544789450328 970.13535837291579
decision_type=2 2 2 2 2 2 2 2 2 2 2
left_child=1 5 -2 -4 -5 9 7 -3 -6 -1 -11
right_child=2 6 3 4 8 -7 -8 -9 -10 10 -12
leaf_value=-0.49228118260701498 0.13390742599964142 -0.028703889880853241 0.60536810919642459 0.21452243002978238 0.51051389455795293 -0.25020259448460175 0.05212401911616326 -0.18914223572482236 0.38334960977682908 -0.46588115356862547 -0.3682436764240265
leaf_weight=33 20 32 20 22 20 21 20 23 89 32 63
leaf_count=33 20 32 20 22 20 21 20 23 89 32 63
internal_value=-5.79188e-10 -0.284971 0.373295 0.405002 0.374411 -0.400048 -0.0563509 -0.0957963 0.406683 -0.424631 -0.401132
internal_weight=395 224 171 151 131 149 75 55 109 128 95
internal_count=395 224 171 151 131 149 75 55 109 128 95
is_linear=0
shrinkage=0.1


Tree=23
num_leaves=12
num_cat=0
split_feature=0 20 35 16 24 3 17 19 36 18 49
split_gain=3405.71 493.213 108.84 74.1278 53.805 37.0158 54.7859 18.4966 21.3838 6.72725 4.78179
threshold=1020.2477633696277 997.09313693509546 0.9989512767002986 0.0019823375265064303 978.59911044071475 1006.7922001468663 9348.9460695000016 72.765558440681062 0.0010468890292066344 1.5715703623389328 37.393617069126627
decision_type=2 2 2 2 2 2 2 2 2 2 2
left_child=1 4 -2 9 7 -3 -7 8 -1 10 -4
right_child=2 5 3 -5 -6 6 -8 -9 -10 -11 -12
leaf_value=-0.30577054440975193 0.12051668524742128 0.075869283936917789 0.32451657369023279 0.54809511882252993 -0.22177653098106387 -0.001430073892697692 -0.20929802131085171 -0.29636126103855315 -0.42044307425104344 0.28787715315818785 0.36755399454885457
leaf_weight=20 20 20 42 20 25 32 21 21 87 20 67
leaf_count=20 20 20 42 20 25 32 21 21 87 20 67
internal_value=-9.20005e-10 -0.253919 0.33956 0.368961 -0.355961 -0.0400498 -0.0837928 -0.382168 -0.399009 0.341189 0.350971
internal_weight=395 226 169 149 153 73 53 128 107 129 109
internal_count=395 226 169 149 153 73 53 128 107 129 109
is_linear=0
shrinkage=0.1


Tree=24
num_leaves=14
num_cat=0
split_feature=10 24 16 48 20 45 40 49 17 27 6 46 28
split_gain=2775.28 274.172 205.787 55.29 32.1594 21.9432 21.3162 16.9315 24.237 17.8196 11.5766 11.5493 6.14221
threshold=1011.4900000000001 978.59911044071475 0.0035324513449927187 0.20233171621189983 997.09313693509546 1.0005243648346129 1051.4700000000003 48.415103442480223 5984.2854342083347 3922.4958930000007 0.0029151715119090597 0.0026180050574499138 0.20518846124311865
decision_type=2 2 2 2 2 2 2 2 2 2 2 2 2
left_child=1 7 3 -2 -3 -6 -5 11 9 -9 -10 -1 -8
right_child=2 4 -4 6 5 -7 12 8 10 -11 -12 -13 -14
leaf_value=-0.34903336763381959 0.48315662860870368 -0.19959887802600862 0.065236479426557956 0.21949068925653897 -0.12280687232102667 0.0060890041142702108 0.37222035328547159 -0.30593978791009813 -0.20706907033920291 -0.43783111095428473 -0.31466367602348333 -0.44929383873939516 0.31196371508740833
leaf_weight=27 20 25 37 24 28 25 21 21 20 20 20 20 87
leaf_count=27 20 25 37 24 28 25 21 21 20 20 20 20 87
internal_value=-4.59295e-10 -0.253894 0.276731 0.328213 -0.106107 -0.0620069 0.304737 -0.343951 -0.316247 -0.370277 -0.260866 -0.391697 0.32368
internal_weight=395 206 189 152 78 53 132 128 81 41 40 47 108
internal_count=395 206 189 152 78 53 132 128 81 41 40 47 108
is_linear=0
shrinkage=0.1


end of trees

feature_importances:
Column_40=51
Column_20=41
Column_47=19
Column_19=14
Column_4=12
Column_16=12
Column_3=10
Column_10=10
Column_23=10
Column_0=9
Column_49=9
Column_29=8
Column_41=8
Column_43=8
Column_24=7
Column_28=6
Column_13=5
Column_17=5
Column_25=5
Column_46=5
Column_6=4
Column_14=4
Column_42=4
Column_9=3
Column_15=3
Column_36=3
Column_37=3
Column_48=3
Column_7=2
Column_27=2
Column_30=2
Column_31=2
Column_33=2
Column_35=2
Column_44=2
Column_45=2
Column_1=1
Column_11=1
Column_12=1
Column_18=1
Column_21=1
Column_22=1
Column_38=1
Column_39=1

parameters:
[boosting: gbdt]
[objective: regression]
[metric: l2]
[tree_learner: serial]
[device_type: cpu]
[data_sample_strategy: bagging]
[data: ]
[valid: ]
[num_iterations: 50]
[learning_rate: 0.1]
[num_leaves: 31]
[num_threads: 24]
[seed: 42]
[deterministic: 0]
[force_col_wise: 0]
[force_row_wise: 0]
[histogram_pool_size: -1]
[max_depth: 5]
[min_data_in_leaf: 20]
[min_sum_hessian_in_leaf: 0.001]
[bagging_fraction: 1]
[pos_bagging_fraction: 1]
[neg_bagging_fraction: 1]
[bagging_freq: 0]
[bagging_seed: 400]
[bagging_by_query: 0]
[feature_fraction: 1]
[feature_fraction_bynode: 1]
[feature_fraction_seed: 30056]
[extra_trees: 0]
[extra_seed: 12879]
[early_stopping_round: 0]
[early_stopping_min_delta: 0]
[first_metric_only: 0]
[max_delta_step: 0]
[lambda_l1: 0]
[lambda_l2: 0]
[linear_lambda: 0]
[min_gain_to_split: 0]
[drop_rate: 0.1]
[max_drop: 50]
[skip_drop: 0.5]
[xgboost_dart_mode: 0]
[uniform_drop: 0]
[drop_seed: 17869]
[top_rate: 0.2]
[other_rate: 0.1]
[min_data_per_group: 100]
[max_cat_threshold: 32]
[cat_l2: 10]
[cat_smooth: 10]
[max_cat_to_onehot: 4]
[top_k: 20]
[monotone_constraints: ]
[monotone_constraints_method: basic]
[monotone_penalty: 0]
[feature_contri: ]
[forcedsplits_filename: ]
[refit_decay_rate: 0.9]
[cegb_tradeoff: 1]
[cegb_penalty_split: 0]
[cegb_penalty_feature_lazy: ]
[cegb_penalty_feature_coupled: ]
[path_smooth: 0]
[interaction_constraints: ]
[verbosity: -1]
[saved_feature_importance_type: 0]
[use_quantized_grad: 0]
[num_grad_quant_bins: 4]
[quant_train_renew_leaf: 0]
[stochastic_rounding: 1]
[linear_tree: 0]
[max_bin: 255]
[max_bin_by_feature: ]
[min_data_in_bin: 3]
[bin_construct_sample_cnt: 200000]
[data_random_seed: 175]
[is_enable_sparse: 1]
[enable_bundle: 1]
[use_missing: 1]
[zero_as_missing: 0]
[feature_pre_filter: 1]
[pre_partition: 0]
[two_round: 0]
[header: 0]
[label_column: ]
[weight_column: ]
[group_column: ]
[ignore_column: ]
[categorical_feature: ]
[forcedbins_filename: ]
[precise_float_parser: 0]
[parser_config_file: ]
[objective_seed: 16083]
[num_class: 1]
[is_unbalance: 0]
[scale_pos_weight: 1]
[sigmoid: 1]
[boost_from_average: 1]
[reg_sqrt: 0]
[alpha: 0.9]
[fair_c: 1]
[poisson_max_delta_step: 0.7]
[tweedie_variance_power: 1.5]
[lambdarank_truncation_level: 30]
[lambdarank_norm: 1]
[label_gain: ]
[lambdarank_position_bias_regularization: 0]
[eval_at: ]
[multi_error_top_k: 1]
[auc_mu_weights: ]
[num_machines: 1]
[local_listen_port: 12400]
[time_out: 120]
[machine_list_filename: ]
[machines: ]
[gpu_platform_id: -1]
[gpu_device_id: -1]
[gpu_use_dp: 0]
[num_gpu: 1]

end of parameters

pandas_categorical:null
