tree
version=v4
num_class=1
num_tree_per_iteration=1
label_index=0
max_feature_idx=49
objective=regression
feature_names=Column_0 Column_1 Column_2 Column_3 Column_4 Column_5 Column_6 Column_7 Column_8 Column_9 Column_10 Column_11 Column_12 Column_13 Column_14 Column_15 Column_16 Column_17 Column_18 Column_19 Column_20 Column_21 Column_22 Column_23 Column_24 Column_25 Column_26 Column_27 Column_28 Column_29 Column_30 Column_31 Column_32 Column_33 Column_34 Column_35 Column_36 Column_37 Column_38 Column_39 Column_40 Column_41 Column_42 Column_43 Column_44 Column_45 Column_46 Column_47 Column_48 Column_49
feature_infos=[4281.1999999999998:4423.3400000000001] [0:503445.88919999998] [-0.004455951330516017:0.021183965897165535] [4282.5460000000003:4419.8320000000003] [4284.1119999999992:4417.7349999999997] [0.99731098379379235:1.01665282907673] [0:0.0095895309308250427] [136393.35672499999:389367.01134349999] [0:1.8761874817994939] [0:99.999999994776118] [4281.1999999999998:4423.3400000000001] [0:503445.88919999998] [-0.004455951330516017:0.021183965897165535] [4282.5460000000003:4419.8320000000003] [4284.1119999999992:4417.7349999999997] [0.99731098379379235:1.01665282907673] [0.00010004198003402905:0.0095895309308250427] [136417.923033:389367.01134349999] [0:1.8761874817994939] [0:99.999999994776118] [4281.1999999999998:4423.3400000000001] [0:503445.88919999998] [-0.004455951330516017:0.021183965897165535] [4282.5460000000003:4419.8320000000003] [4284.1119999999992:4417.7349999999997] [0.99731098379379235:1.01665282907673] [0.00010004198003402905:0.0095895309308250427] [150778.852862:389367.01134349999] [0:1.8761874817994939] [0:99.999999994776118] [4281.1999999999998:4423.3400000000001] [0:503445.88919999998] [-0.0025093372041278261:0.021183965897165535] [4282.5460000000003:4419.8320000000003] [4284.1119999999992:4417.7349999999997] [0.99776376962688562:1.01665282907673] [0.00010004198003402905:0.0095895309308250427] [150778.852862:389367.01134349999] [0:1.8761874817994939] [0:99.999999994776118] [4281.1999999999998:4423.3400000000001] [0:503445.88919999998] [-0.0025093372041278261:0.021183965897165535] [4282.5460000000003:4419.8320000000003] [4284.1119999999992:4417.7349999999997] [0.99776376962688562:1.01665282907673] [0.00010004198003402905:0.0095895309308250427] [150778.852862:389367.01134349999] [0:1.8761874817994939] [0:99.999999994776118]
tree_sizes=1234 1250 1418 1326 1255 1340 1343

Tree=0
num_leaves=14
num_cat=0
split_feature=43 40 40 40 40 40 43 30 30 28 8 6 21
split_gain=891535 16170.1 7199.41 2372.27 2213.42 423.348 379.373 308.145 291.206 261.158 253.936 198.83 119.59
threshold=4314.7470000000012 4403.7650000000003 4297.3150000000005 4410.2750000000005 4394.5150000000012 4290.9950000000008 4400.6720000000014 4414.2250000000013 4391.7850000000008 0.54804324782272518 0.99976342968010501 0.00083214107617075872 486567.70210000005
decision_type=2 2 2 2 2 2 2 2 2 2 2 2 2
left_child=2 4 5 9 8 10 11 -5 -2 -3 -1 -6 -9
right_child=1 3 -4 7 6 -7 -8 12 -10 -11 -12 -13 -14
leaf_value=4366.9947842036381 4377.3872145608238 4378.89484871682 4369.201165000547 4379.6148919158786 4378.4489929000028 4367.720497094263 4378.6561663642196 4379.8774519620019 4377.8534479918426 4379.2994330895763 4367.4728452387944 4378.0445755990095 4380.1784477511537
leaf_weight=25 37 39 32 34 20 25 29 33 21 27 20 31 22
leaf_count=25 37 39 32 34 20 25 29 33 21 27 20 31 22
internal_value=4376.01 4378.81 4367.96 4379.51 4378.03 4367.39 4378.37 4379.85 4377.56 4379.06 4367.21 4378.2 4380
internal_weight=395 293 102 155 138 70 80 89 58 66 45 51 55
internal_count=395 293 102 155 138 70 80 89 58 66 45 51 55
is_linear=0
shrinkage=1


Tree=1
num_leaves=14
num_cat=0
split_feature=43 40 40 40 40 40 38 40 7 28 8 38 40
split_gain=722143 13097.8 5831.52 1921.54 1792.87 342.912 334.91 273.365 252.023 211.537 205.688 184.778 154.281
threshold=4314.7470000000012 4403.7650000000003 4297.3150000000005 4410.2750000000005 4394.5150000000012 4290.9950000000008 0.54349266359384929 4414.2250000000013 310033.68859350006 0.54804324782272518 0.99976342968010501 0.54925441210902903 4398.3650000000007
decision_type=2 2 2 2 2 2 2 2 2 2 2 2 2
left_child=2 4 5 9 8 10 -6 -5 -2 -3 -1 -9 -8
right_child=1 3 -4 7 6 -7 12 11 -10 -11 -12 -13 -14
leaf_value=-8.114235961914062 1.1894948037465414 2.595821703397311 -6.1284934997558596 3.2285500150738344 2.3531029292515346 -7.4610946350097667 1.7336388349533083 3.8011394341786708 1.6066470827375139 2.9599474518387408 -7.6839814758300777 3.4340785145759583 2.1062687263488771
leaf_weight=25 30 39 32 33 35 25 20 24 28 27 20 32 25
leaf_count=25 30 39 32 33 35 25 20 24 28 27 20 32 25
internal_value=2.63166e-08 2.52278 -7.24681 3.15365 1.8142 -7.75804 2.1211 3.45685 1.39088 2.74478 -7.92301 3.59139 1.94066
internal_weight=395 293 102 155 138 70 80 89 58 66 45 56 45
internal_count=395 293 102 155 138 70 80 89 58 66 45 56 45
is_linear=0
shrinkage=0.1


Tree=2
num_leaves=16
num_cat=0
split_feature=43 40 30 40 30 30 30 40 8 41 40 16 22 6 21
split_gain=584936 10609.2 4781.04 1565.45 1496.76 356.105 342.548 299.787 166.607 149.983 147.304 132.269 105.315 96.0519 93.9914
threshold=4314.7470000000012 4403.7650000000003 4297.3150000000005 4408.8300000000008 4393.6000000000013 4413.2350000000015 4398.670000000001 4290.9950000000008 0.99976342968010501 134541.05878850003 4389.5750000000007 0.00081115467840485033 -0.00056118638150082212 0.00085217686855806006 486839.30400000006
decision_type=2 2 2 2 2 2 2 2 2 2 2 2 2 2 2
left_child=2 4 7 9 10 12 13 8 -1 -3 -2 -8 -5 -6 -7
right_child=1 3 -4 5 6 14 11 -9 -10 -11 -12 -13 -14 -15 -16
leaf_value=-7.3028124694824221 0.9941625140962147 2.1947405179341635 -5.4860114682105277 2.6765180110931399 1.8249045662257981 3.129481672629332 2.2682479953765871 -6.7041876572829029 -6.9155831909179684 2.5366024768713751 1.3419261767946442 1.920042908191681 3.0010413837432863 1.529099328177316 3.3879845879294659
leaf_weight=25 21 21 31 20 23 39 20 26 20 33 29 24 20 21 22
leaf_count=25 21 21 31 20 23 39 20 26 20 33 29 24 20 21 22
internal_value=2.29365e-08 2.2705 -6.52213 2.83828 1.63278 3.07066 1.88102 -6.97452 -7.13071 2.40366 1.19587 2.07832 2.83878 1.68372 3.22271
internal_weight=395 293 102 155 138 101 88 71 45 54 50 44 40 44 61
internal_count=395 293 102 155 138 101 88 71 45 54 50 44 40 44 61
is_linear=0
shrinkage=0.1


Tree=3
num_leaves=15
num_cat=0
split_feature=43 40 20 43 40 40 9 38 47 0 21 45 21 8
split_gain=473798 8593.46 3975.7 1286.58 1240.11 303.659 278.773 254.29 217.538 189.689 166.935 163.101 140.717 100.116
threshold=4314.7470000000012 4403.7650000000003 4297.3150000000005 4412.505000000001 4394.0650000000014 4290.9950000000008 64.060121805196161 0.54142291128182041 257883.56830066672 4405.0900000000011 486839.30400000006 0.99997209733642001 137916.08011000001 0.99935566287748723
decision_type=2 2 2 2 2 2 2 2 2 2 2 2 2 2
left_child=2 4 5 6 8 13 9 -6 -2 -3 11 -5 -9 -1
right_child=1 3 -4 10 7 -7 -8 12 -10 -11 -12 -13 -14 -15
leaf_value=-6.5744382222493485 1.3643339395523073 2.3747904740847074 -4.9027252451578782 2.5620222364153182 1.9344945520162584 -6.0154741832188208 2.5658109041360713 1.7082952222516461 0.95090615749359131 2.0136271939133152 3.1161048507690432 2.9279575282129748 1.3680733013153077 -6.2714973449707037
leaf_weight=24 20 26 30 21 32 28 26 31 35 33 20 29 20 20
leaf_count=24 20 26 30 21 32 28 26 31 35 33 20 29 20 20
internal_value=1.18907e-08 2.04345 -5.86992 2.55446 1.4695 -6.27291 2.293 1.71352 1.10124 2.17278 2.87193 2.77426 1.57487 -6.43674
internal_weight=395 293 102 155 138 72 85 83 55 59 70 50 51 44
internal_count=395 293 102 155 138 72 85 83 55 59 70 50 51 44
is_linear=0
shrinkage=0.1


Tree=4
num_leaves=14
num_cat=0
split_feature=43 40 40 40 30 6 27 40 40 40 30 41 7
split_gain=383777 6960.71 3335.1 1070.12 1039.88 311.398 270.654 217.451 197.392 156.766 136.157 120.689 95.5525
threshold=4314.7470000000012 4403.7650000000003 4297.3150000000005 4408.8300000000008 4395.9500000000007 0.00079687460738840806 255713.01824750003 4394.0650000000014 4414.2250000000013 4288.8450000000003 4399.9800000000005 134541.05878850003 310033.68859350006
decision_type=2 2 2 2 2 2 2 2 2 2 2 2 2
left_child=2 4 9 11 7 -6 -5 12 -8 -1 -7 -3 -2
right_child=1 3 -4 6 5 10 8 -9 -10 -11 -12 -13 -14
leaf_value=-5.8235296698177565 0.80526814323205231 1.7522568384806316 -4.4372018456459044 2.1896762847900391 1.8647649235195585 1.249564059575399 2.3942619583823466 1.3212200891403925 2.7162571504380968 -5.5241077740987148 1.6141394376754761 2.0589222330035586 1.0850814736407737
leaf_weight=34 26 21 32 23 27 21 33 21 45 36 20 33 23
leaf_count=34 26 21 32 23 27 21 33 21 45 36 20 33 23
internal_value=1.25849e-08 1.83911 -5.28292 2.29901 1.32255 1.60106 2.49114 1.05199 2.58003 -5.66954 1.42741 1.93966 0.936609
internal_weight=395 293 102 155 138 68 101 70 78 70 41 54 49
internal_count=395 293 102 155 138 68 101 70 78 70 41 54 49
is_linear=0
shrinkage=0.1


Tree=5
num_leaves=15
num_cat=0
split_feature=43 40 20 40 30 12 27 40 40 36 33 8 40 13
split_gain=310859 5643.16 2747.37 1443.91 438.067 259.215 219.23 185.018 159.888 118.974 97.5357 83.637 69.8694 69.8565
threshold=4314.7470000000012 4399.8950000000013 4297.3150000000005 4408.8300000000008 4393.8250000000016 0.0001921464203369361 255713.01824750003 4290.9950000000008 4414.2250000000013 0.00072047089767140451 4405.6010000000015 0.99935566287748723 4404.4500000000007 4395.9830000000011
decision_type=2 2 2 2 2 2 2 2 2 2 2 2 2 2
left_child=2 4 7 5 9 10 -5 11 -8 -2 -3 -1 -7 -6
right_child=1 3 -4 6 13 12 8 -9 -10 -11 -12 -13 -14 -15
leaf_value=-5.3433745702107753 0.67380069419741639 2.0147936391830448 -3.9506176630655925 1.970708639725395 1.4038307189941408 1.3688259458541872 2.1548357472275241 -4.8886887141636448 2.4446314409044057 0.98471351191401491 1.7185130882263184 -5.0664860725402834 1.6299883842468263 1.1738159794961252
leaf_weight=24 20 20 30 23 23 20 33 28 45 32 25 20 21 31
leaf_count=24 20 20 30 23 23 20 33 28 45 32 25 20 21 31
internal_value=-2.19481e-08 1.6552 -4.75463 1.98561 1.07229 1.68448 2.24202 -5.08964 2.32203 0.865132 1.85019 -5.21752 1.50259 1.27179
internal_weight=395 293 102 187 106 86 101 72 78 52 45 44 41 54
internal_count=395 293 102 187 106 86 101 72 78 52 45 44 41 54
is_linear=0
shrinkage=0.1


Tree=6
num_leaves=15
num_cat=0
split_feature=43 40 40 43 30 28 46 36 21 45 0 13 4 36
split_gain=251796 4591.17 2293.09 851.496 611.019 317.765 154.361 146.693 140.336 122.253 115.317 216.307 111.967 63.4605
threshold=4314.7470000000012 4402.2800000000007 4297.3150000000005 4411.8990000000003 4394.0650000000014 1.5514928007023634 0.00069382425100005809 0.00088062723591952419 486567.70210000005 0.99997209733642001 4287.0050000000001 4291.9000000000005 4388.4435000000012 0.0008552451382817524
decision_type=2 2 2 2 2 2 2 2 2 2 2 2 2 2
left_child=2 4 10 6 12 13 -3 -8 9 -5 -1 -12 -2 -6
right_child=1 3 -4 8 5 -7 7 -9 -10 -11 11 -13 -14 -15
leaf_value=-4.4327802511361929 0.60698353222438273 1.8639756250381472 -3.5778997659683229 1.8129497486612072 1.0063785476069298 1.5581988607134138 1.4188760606866135 1.7205282756260463 2.2833175534787387 2.1132822903719819 -4.9412975692749024 -4.4960099061330165 0.90066586759160561 1.2315239361354284
leaf_weight=26 21 20 32 23 31 21 38 28 23 33 20 24 34 21
leaf_count=26 21 20 32 23 31 21 38 28 23 33 20 24 34 21
internal_value=-6.91867e-09 1.48968 -4.27917 1.83833 1.04024 1.22989 1.6206 1.54685 2.07535 1.98993 -4.59975 -4.69841 0.788533 1.0973
internal_weight=395 293 102 165 128 73 86 66 79 56 70 44 55 52
internal_count=395 293 102 165 128 73 86 66 79 56 70 44 55 52
is_linear=0
shrinkage=0.1


end of trees

feature_importances:
Column_40=32
Column_30=10
Column_43=10
Column_8=5
Column_21=5
Column_6=3
Column_28=3
Column_36=3
Column_38=3
Column_0=2
Column_7=2
Column_13=2
Column_20=2
Column_27=2
Column_41=2
Column_45=2
Column_4=1
Column_9=1
Column_12=1
Column_16=1
Column_22=1
Column_33=1
Column_46=1
Column_47=1

parameters:
[boosting: gbdt]
[objective: regression]
[metric: l2]
[tree_learner: serial]
[device_type: cpu]
[data_sample_strategy: bagging]
[data: ]
[valid: ]
[num_iterations: 50]
[learning_rate: 0.1]
[num_leaves: 31]
[num_threads: 24]
[seed: 42]
[deterministic: 0]
[force_col_wise: 0]
[force_row_wise: 0]
[histogram_pool_size: -1]
[max_depth: 5]
[min_data_in_leaf: 20]
[min_sum_hessian_in_leaf: 0.001]
[bagging_fraction: 1]
[pos_bagging_fraction: 1]
[neg_bagging_fraction: 1]
[bagging_freq: 0]
[bagging_seed: 400]
[bagging_by_query: 0]
[feature_fraction: 1]
[feature_fraction_bynode: 1]
[feature_fraction_seed: 30056]
[extra_trees: 0]
[extra_seed: 12879]
[early_stopping_round: 0]
[early_stopping_min_delta: 0]
[first_metric_only: 0]
[max_delta_step: 0]
[lambda_l1: 0]
[lambda_l2: 0]
[linear_lambda: 0]
[min_gain_to_split: 0]
[drop_rate: 0.1]
[max_drop: 50]
[skip_drop: 0.5]
[xgboost_dart_mode: 0]
[uniform_drop: 0]
[drop_seed: 17869]
[top_rate: 0.2]
[other_rate: 0.1]
[min_data_per_group: 100]
[max_cat_threshold: 32]
[cat_l2: 10]
[cat_smooth: 10]
[max_cat_to_onehot: 4]
[top_k: 20]
[monotone_constraints: ]
[monotone_constraints_method: basic]
[monotone_penalty: 0]
[feature_contri: ]
[forcedsplits_filename: ]
[refit_decay_rate: 0.9]
[cegb_tradeoff: 1]
[cegb_penalty_split: 0]
[cegb_penalty_feature_lazy: ]
[cegb_penalty_feature_coupled: ]
[path_smooth: 0]
[interaction_constraints: ]
[verbosity: -1]
[saved_feature_importance_type: 0]
[use_quantized_grad: 0]
[num_grad_quant_bins: 4]
[quant_train_renew_leaf: 0]
[stochastic_rounding: 1]
[linear_tree: 0]
[max_bin: 255]
[max_bin_by_feature: ]
[min_data_in_bin: 3]
[bin_construct_sample_cnt: 200000]
[data_random_seed: 175]
[is_enable_sparse: 1]
[enable_bundle: 1]
[use_missing: 1]
[zero_as_missing: 0]
[feature_pre_filter: 1]
[pre_partition: 0]
[two_round: 0]
[header: 0]
[label_column: ]
[weight_column: ]
[group_column: ]
[ignore_column: ]
[categorical_feature: ]
[forcedbins_filename: ]
[precise_float_parser: 0]
[parser_config_file: ]
[objective_seed: 16083]
[num_class: 1]
[is_unbalance: 0]
[scale_pos_weight: 1]
[sigmoid: 1]
[boost_from_average: 1]
[reg_sqrt: 0]
[alpha: 0.9]
[fair_c: 1]
[poisson_max_delta_step: 0.7]
[tweedie_variance_power: 1.5]
[lambdarank_truncation_level: 30]
[lambdarank_norm: 1]
[label_gain: ]
[lambdarank_position_bias_regularization: 0]
[eval_at: ]
[multi_error_top_k: 1]
[auc_mu_weights: ]
[num_machines: 1]
[local_listen_port: 12400]
[time_out: 120]
[machine_list_filename: ]
[machines: ]
[gpu_platform_id: -1]
[gpu_device_id: -1]
[gpu_use_dp: 0]
[num_gpu: 1]

end of parameters

pandas_categorical:null
